<?xml version="1.0"?>
<opencv_storage>
<cascade>
  <stageType>BOOST</stageType>
  <featureType>HAAR</featureType>
  <height>24</height>
  <width>24</width>
  <stageParams>
    <boostType>GAB</boostType>
    <minHitRate>9.9500000476837158e-01</minHitRate>
    <maxFalseAlarm>5.0000000000000000e-01</maxFalseAlarm>
    <weightTrimRate>9.4999999999999996e-01</weightTrimRate>
    <maxDepth>1</maxDepth>
    <maxWeakCount>100</maxWeakCount></stageParams>
  <featureParams>
    <maxCatCount>0</maxCatCount>
    <featSize>1</featSize>
    <mode>BASIC</mode></featureParams>
  <stageNum>30</stageNum>
  <stages>
    <!-- stage 0 -->
    <_>
      <maxWeakCount>9</maxWeakCount>
      <stageThreshold>-9.2795282602310181e-01</stageThreshold>
      <weakClassifiers>
        <_>
          <internalNodes>
            0 -1 142 -8.0035157501697540e-02</internalNodes>
          <leafValues>
            5.6213015317916870e-01 -4.9707603454589844e-01</leafValues></_>
        <_>
          <internalNodes>
            0 -1 35 7.9798102378845215e-02</internalNodes>
          <leafValues>
            2.1596221625804901e-01 -8.7624174356460571e-01</leafValues></_>
        <_>
          <internalNodes>
            0 -1 120 -1.1797452345490456e-02</internalNodes>
          <leafValues>
            8.7577205896377563e-01 -2.2621768712997437e-01</leafValues></_>
        <_>
          <internalNodes>
            0 -1 78 -7.9189732670783997e-02</internalNodes>
          <leafValues>
            6.7286550998687744e-01 -2.6864072680473328e-01</leafValues></_>
        <_>
          <internalNodes>
            0 -1 66 -5.5498413741588593e-02</internalNodes>
          <leafValues>
            6.9074255228042603e-01 -1.6617608070373535e-01</leafValues></_>
        <_>
          <internalNodes>
            0 -1 179 4.8623569309711456e-02</internalNodes>
          <leafValues>
            -2.1734198927879333e-01 8.1480920314788818e-01</leafValues></_>
        <_>
          <internalNodes>
            0 -1 177 -9.2779025435447693e-03</internalNodes>
          <leafValues>
            -8.2674318552017212e-01 2.0377452671527863e-01</leafValues></_>
        <_>
          <internalNodes>
            0 -1 375 -1.7709638923406601e-02</internalNodes>
          <leafValues>
            7.9901677370071411e-01 -2.1580578386783600e-01</leafValues></_>
        <_>
          <internalNodes>
            0 -1 43 4.4685485772788525e-04</internalNodes>
          <leafValues>
            2.7656644582748413e-01 -7.5100123882293701e-01</leafValues></_></weakClassifiers></_>
    <!-- stage 1 -->
    <_>
      <maxWeakCount>10</maxWeakCount>
      <stageThreshold>-9.3791323900222778e-01</stageThreshold>
      <weakClassifiers>
        <_>
          <internalNodes>
            0 -1 234 -7.7017232775688171e-02</internalNodes>
          <leafValues>
            6.4426875114440918e-01 -3.3489462733268738e-01</leafValues></_>
        <_>
          <internalNodes>
            0 -1 196 -2.3892752826213837e-02</internalNodes>
          <leafValues>
            8.0333083868026733e-01 -1.4710953831672668e-01</leafValues></_>
        <_>
          <internalNodes>
            0 -1 67 1.9753468222916126e-05</internalNodes>
          <leafValues>
            -3.4046614170074463e-01 4.6543154120445251e-01</leafValues></_>
        <_>
          <internalNodes>
            0 -1 148 1.4631437807111070e-05</internalNodes>
          <leafValues>
            -3.0096983909606934e-01 4.3103262782096863e-01</leafValues></_>
        <_>
          <internalNodes>
            0 -1 356 -3.3429830800741911e-03</internalNodes>
          <leafValues>
            -5.9338945150375366e-01 1.9973970949649811e-01</leafValues></_>
        <_>
          <internalNodes>
            0 -1 138 -1.6866299120010808e-05</internalNodes>
          <leafValues>
            4.2250695824623108e-01 -3.0379658937454224e-01</leafValues></_>
        <_>
          <internalNodes>
            0 -1 370 -1.4423653738049325e-05</internalNodes>
          <leafValues>
            3.7499120831489563e-01 -3.2487523555755615e-01</leafValues></_>
        <_>
          <internalNodes>
            0 -1 296 1.6180954116862267e-04</internalNodes>
          <leafValues>
            -2.6205652952194214e-01 4.9545687437057495e-01</leafValues></_>
        <_>
          <internalNodes>
            0 -1 207 -6.6582331783138216e-05</internalNodes>
          <leafValues>
            4.3554952740669250e-01 -2.8549733757972717e-01</leafValues></_>
        <_>
          <internalNodes>
            0 -1 314 -2.3640435189008713e-02</internalNodes>
          <leafValues>
            5.8629542589187622e-01 -2.2854134440422058e-01</leafValues></_></weakClassifiers></_>
    <!-- stage 2 -->
    <_>
      <maxWeakCount>13</maxWeakCount>
      <stageThreshold>-8.2085639238357544e-01</stageThreshold>
      <weakClassifiers>
        <_>
          <internalNodes>
            0 -1 146 -1.0138814896345139e-01</internalNodes>
          <leafValues>
            4.7058823704719543e-01 -2.6470589637756348e-01</leafValues></_>
        <_>
          <internalNodes>
            0 -1 104 1.4191798072715756e-05</internalNodes>
          <leafValues>
            -2.5331190228462219e-01 4.2684584856033325e-01</leafValues></_>
        <_>
          <internalNodes>
            0 -1 104 -3.3244366932194680e-05</internalNodes>
          <leafValues>
            4.0661841630935669e-01 -2.8363981842994690e-01</leafValues></_>
        <_>
          <internalNodes>
            0 -1 119 -1.0503821074962616e-02</internalNodes>
          <leafValues>
            3.8530948758125305e-01 -3.0500161647796631e-01</leafValues></_>
        <_>
          <internalNodes>
            0 -1 235 -9.2020221054553986e-03</internalNodes>
          <leafValues>
            -6.6907453536987305e-01 2.1637865900993347e-01</leafValues></_>
        <_>
          <internalNodes>
            0 -1 418 1.2884116586064920e-05</internalNodes>
          <leafValues>
            -3.4407508373260498e-01 3.2384175062179565e-01</leafValues></_>
        <_>
          <internalNodes>
            0 -1 382 1.4299315807875246e-05</internalNodes>
          <leafValues>
            -2.4373576045036316e-01 4.3584764003753662e-01</leafValues></_>
        <_>
          <internalNodes>
            0 -1 382 -1.5294275726773776e-05</internalNodes>
          <leafValues>
            4.6598190069198608e-01 -2.9050433635711670e-01</leafValues></_>
        <_>
          <internalNodes>
            0 -1 271 7.9636718146502972e-04</internalNodes>
          <leafValues>
            1.5660582482814789e-01 -7.3573458194732666e-01</leafValues></_>
        <_>
          <internalNodes>
            0 -1 280 1.5623781364411116e-03</internalNodes>
          <leafValues>
            -1.6514036059379578e-01 7.2324842214584351e-01</leafValues></_>
        <_>
          <internalNodes>
            0 -1 349 1.5417406393680722e-04</internalNodes>
          <leafValues>
            -2.5122991204261780e-01 4.6890574693679810e-01</leafValues></_>
        <_>
          <internalNodes>
            0 -1 389 -2.5105560198426247e-03</internalNodes>
          <leafValues>
            -5.4914110898971558e-01 2.0405285060405731e-01</leafValues></_>
        <_>
          <internalNodes>
            0 -1 320 1.5873900338192470e-05</internalNodes>
          <leafValues>
            -2.5058114528656006e-01 4.4904679059982300e-01</leafValues></_></weakClassifiers></_>
    <!-- stage 3 -->
    <_>
      <maxWeakCount>9</maxWeakCount>
      <stageThreshold>-7.8174203634262085e-01</stageThreshold>
      <weakClassifiers>
        <_>
          <internalNodes>
            0 -1 94 -6.4484804868698120e-02</internalNodes>
          <leafValues>
            5.8695650100708008e-01 -1.7741934955120087e-01</leafValues></_>
        <_>
          <internalNodes>
            0 -1 216 1.4693734701722860e-03</internalNodes>
          <leafValues>
            -1.3196048140525818e-01 7.2623020410537720e-01</leafValues></_>
        <_>
          <internalNodes>
            0 -1 30 9.0271979570388794e-02</internalNodes>
          <leafValues>
            1.4500282704830170e-01 -8.0981582403182983e-01</leafValues></_>
        <_>
          <internalNodes>
            0 -1 72 -1.9466084241867065e-01</internalNodes>
          <leafValues>
            -7.9906362295150757e-01 1.1470039188861847e-01</leafValues></_>
        <_>
          <internalNodes>
            0 -1 45 1.8196898745372891e-03</internalNodes>
          <leafValues>
            1.7263825237751007e-01 -6.2638658285140991e-01</leafValues></_>
        <_>
          <internalNodes>
            0 -1 248 -9.3925651162862778e-03</internalNodes>
          <leafValues>
            -6.2817198038101196e-01 2.0018301904201508e-01</leafValues></_>
        <_>
          <internalNodes>
            0 -1 64 3.0191680416464806e-03</internalNodes>
          <leafValues>
            1.6263945400714874e-01 -6.6011357307434082e-01</leafValues></_>
        <_>
          <internalNodes>
            0 -1 60 -2.0378357730805874e-03</internalNodes>
          <leafValues>
            9.8471188545227051e-01 -1.8602834641933441e-01</leafValues></_>
        <_>
          <internalNodes>
            0 -1 256 2.3179645650088787e-03</internalNodes>
          <leafValues>
            -2.1849387884140015e-01 4.2387658357620239e-01</leafValues></_></weakClassifiers></_>
    <!-- stage 4 -->
    <_>
      <maxWeakCount>11</maxWeakCount>
      <stageThreshold>-7.6108139753341675e-01</stageThreshold>
      <weakClassifiers>
        <_>
          <internalNodes>
            0 -1 277 8.7037228513509035e-04</internalNodes>
          <leafValues>
            -1.7164179682731628e-01 7.7777779102325439e-01</leafValues></_>
        <_>
          <internalNodes>
            0 -1 213 4.7898356569930911e-04</internalNodes>
          <leafValues>
            -1.5682916343212128e-01 7.9956644773483276e-01</leafValues></_>
        <_>
          <internalNodes>
            0 -1 258 -2.6211608201265335e-04</internalNodes>
          <leafValues>
            6.5812373161315918e-01 -1.8260568380355835e-01</leafValues></_>
        <_>
          <internalNodes>
            0 -1 310 3.6617987789213657e-03</internalNodes>
          <leafValues>
            -2.0708034932613373e-01 7.3067069053649902e-01</leafValues></_>
        <_>
          <internalNodes>
            0 -1 301 -4.4631853234022856e-04</internalNodes>
          <leafValues>
            8.1879538297653198e-01 -1.2962797284126282e-01</leafValues></_>
        <_>
          <internalNodes>
            0 -1 165 -5.3899381309747696e-03</internalNodes>
          <leafValues>
            8.4886652231216431e-01 -1.4110600948333740e-01</leafValues></_>
        <_>
          <internalNodes>
            0 -1 231 2.5767956394702196e-03</internalNodes>
          <leafValues>
            -1.3105569779872894e-01 7.6920467615127563e-01</leafValues></_>
        <_>
          <internalNodes>
            0 -1 373 5.4822966922074556e-04</internalNodes>
          <leafValues>
            -1.6183915734291077e-01 7.5955837965011597e-01</leafValues></_>
        <_>
          <internalNodes>
            0 -1 7 -8.2438439130783081e-03</internalNodes>
          <leafValues>
            -7.0102530717849731e-01 2.1890451014041901e-01</leafValues></_>
        <_>
          <internalNodes>
            0 -1 255 1.5521288150921464e-03</internalNodes>
          <leafValues>
            -1.2283053994178772e-01 9.6677809953689575e-01</leafValues></_>
        <_>
          <internalNodes>
            0 -1 164 -2.2284453734755516e-04</internalNodes>
          <leafValues>
            4.2463040351867676e-01 -3.1753152608871460e-01</leafValues></_></weakClassifiers></_>
    <!-- stage 5 -->
    <_>
      <maxWeakCount>10</maxWeakCount>
      <stageThreshold>-8.6828857660293579e-01</stageThreshold>
      <weakClassifiers>
        <_>
          <internalNodes>
            0 -1 99 1.2854105234146118e-01</internalNodes>
          <leafValues>
            -1.1775043606758118e-01 7.8378379344940186e-01</leafValues></_>
        <_>
          <internalNodes>
            0 -1 48 -8.1272199749946594e-03</internalNodes>
          <leafValues>
            6.3790267705917358e-01 -1.4611919224262238e-01</leafValues></_>
        <_>
          <internalNodes>
            0 -1 396 -3.0134146800264716e-04</internalNodes>
          <leafValues>
            -5.8189141750335693e-01 1.9391159713268280e-01</leafValues></_>
        <_>
          <internalNodes>
            0 -1 273 -2.7228745166212320e-03</internalNodes>
          <leafValues>
            -7.0091664791107178e-01 1.3343042135238647e-01</leafValues></_>
        <_>
          <internalNodes>
            0 -1 28 -4.5665383338928223e-02</internalNodes>
          <leafValues>
            -6.6673719882965088e-01 1.5575036406517029e-01</leafValues></_>
        <_>
          <internalNodes>
            0 -1 384 8.0915598664432764e-04</internalNodes>
          <leafValues>
            2.1121682226657867e-01 -4.9388924241065979e-01</leafValues></_>
        <_>
          <internalNodes>
            0 -1 245 -1.5772841288708150e-04</internalNodes>
          <leafValues>
            1.8241269886493683e-01 -4.3139493465423584e-01</leafValues></_>
        <_>
          <internalNodes>
            0 -1 14 1.5807426534593105e-03</internalNodes>
          <leafValues>
            2.2057874500751495e-01 -4.6303087472915649e-01</leafValues></_>
        <_>
          <internalNodes>
            0 -1 227 2.3461561650037766e-02</internalNodes>
          <leafValues>
            -1.7921961843967438e-01 6.3713043928146362e-01</leafValues></_>
        <_>
          <internalNodes>
            0 -1 102 -1.4457350969314575e-01</internalNodes>
          <leafValues>
            4.8481985926628113e-01 -2.0358629524707794e-01</leafValues></_></weakClassifiers></_>
    <!-- stage 6 -->
    <_>
      <maxWeakCount>8</maxWeakCount>
      <stageThreshold>-8.8918429613113403e-01</stageThreshold>
      <weakClassifiers>
        <_>
          <internalNodes>
            0 -1 18 -2.8033845126628876e-02</internalNodes>
          <leafValues>
            3.4715026617050171e-01 -3.8775509595870972e-01</leafValues></_>
        <_>
          <internalNodes>
            0 -1 129 1.4191798072715756e-05</internalNodes>
          <leafValues>
            -2.5544548034667969e-01 4.7678628563880920e-01</leafValues></_>
        <_>
          <internalNodes>
            0 -1 129 -1.5185023585218005e-05</internalNodes>
          <leafValues>
            5.5683708190917969e-01 -3.3347567915916443e-01</leafValues></_>
        <_>
          <internalNodes>
            0 -1 406 3.3078606065828353e-05</internalNodes>
          <leafValues>
            -3.6538267135620117e-01 3.3473592996597290e-01</leafValues></_>
        <_>
          <internalNodes>
            0 -1 365 1.6542839148314670e-05</internalNodes>
          <leafValues>
            -2.3656496405601501e-01 4.5846849679946899e-01</leafValues></_>
        <_>
          <internalNodes>
            0 -1 246 -1.6658092135912739e-05</internalNodes>
          <leafValues>
            3.5636213421821594e-01 -2.9946643114089966e-01</leafValues></_>
        <_>
          <internalNodes>
            0 -1 157 1.4046780961507466e-05</internalNodes>
          <leafValues>
            -2.4769535660743713e-01 4.4628170132637024e-01</leafValues></_>
        <_>
          <internalNodes>
            0 -1 157 -1.4753803043277003e-05</internalNodes>
          <leafValues>
            3.9963692426681519e-01 -3.4768846631050110e-01</leafValues></_></weakClassifiers></_>
    <!-- stage 7 -->
    <_>
      <maxWeakCount>12</maxWeakCount>
      <stageThreshold>-8.5081958770751953e-01</stageThreshold>
      <weakClassifiers>
        <_>
          <internalNodes>
            0 -1 383 -1.4171201037243009e-03</internalNodes>
          <leafValues>
            -7.0940172672271729e-01 1.8294848501682281e-01</leafValues></_>
        <_>
          <internalNodes>
            0 -1 24 -2.2134050726890564e-01</internalNodes>
          <leafValues>
            5.0481230020523071e-01 -2.1528239548206329e-01</leafValues></_>
        <_>
          <internalNodes>
            0 -1 154 -7.4897985905408859e-03</internalNodes>
          <leafValues>
            -8.6905330419540405e-01 1.7939390242099762e-01</leafValues></_>
        <_>
          <internalNodes>
            0 -1 135 -4.7110337764024734e-03</internalNodes>
          <leafValues>
            -6.7255669832229614e-01 1.3218256831169128e-01</leafValues></_>
        <_>
          <internalNodes>
            0 -1 211 3.3545386977493763e-03</internalNodes>
          <leafValues>
            -2.1767507493495941e-01 5.6083750724792480e-01</leafValues></_>
        <_>
          <internalNodes>
            0 -1 123 -5.6113883852958679e-02</internalNodes>
          <leafValues>
            6.6354674100875854e-01 -1.7031995952129364e-01</leafValues></_>
        <_>
          <internalNodes>
            0 -1 17 -6.1179079115390778e-02</internalNodes>
          <leafValues>
            5.5750125646591187e-01 -2.0920202136039734e-01</leafValues></_>
        <_>
          <internalNodes>
            0 -1 90 1.1153480969369411e-02</internalNodes>
          <leafValues>
            2.5939574837684631e-01 -4.5683354139328003e-01</leafValues></_>
        <_>
          <internalNodes>
            0 -1 43 6.1295047635212541e-04</internalNodes>
          <leafValues>
            8.5584141314029694e-02 -8.7961518764495850e-01</leafValues></_>
        <_>
          <internalNodes>
            0 -1 224 6.1487616039812565e-03</internalNodes>
          <leafValues>
            -2.3740890622138977e-01 4.1985750198364258e-01</leafValues></_>
        <_>
          <internalNodes>
            0 -1 283 2.2237654775381088e-03</internalNodes>
          <leafValues>
            1.4533038437366486e-01 -6.6444420814514160e-01</leafValues></_>
        <_>
          <internalNodes>
            0 -1 332 -3.2423534430563450e-03</internalNodes>
          <leafValues>
            -6.1801189184188843e-01 1.6554662585258484e-01</leafValues></_></weakClassifiers></_>
    <!-- stage 8 -->
    <_>
      <maxWeakCount>13</maxWeakCount>
      <stageThreshold>-6.5308976173400879e-01</stageThreshold>
      <weakClassifiers>
        <_>
          <internalNodes>
            0 -1 200 1.0045938193798065e-01</internalNodes>
          <leafValues>
            -1.0683012008666992e-01 7.4311923980712891e-01</leafValues></_>
        <_>
          <internalNodes>
            0 -1 5 -4.6504024416208267e-02</internalNodes>
          <leafValues>
            4.7186702489852905e-01 -1.7286482453346252e-01</leafValues></_>
        <_>
          <internalNodes>
            0 -1 353 -1.5201929272734560e-05</internalNodes>
          <leafValues>
            3.4498795866966248e-01 -2.4841848015785217e-01</leafValues></_>
        <_>
          <internalNodes>
            0 -1 228 1.4501695986837149e-03</internalNodes>
          <leafValues>
            -4.0125373005867004e-01 2.1409235894680023e-01</leafValues></_>
        <_>
          <internalNodes>
            0 -1 38 3.8034006953239441e-02</internalNodes>
          <leafValues>
            1.2995995581150055e-01 -7.6446032524108887e-01</leafValues></_>
        <_>
          <internalNodes>
            0 -1 97 6.6682405304163694e-04</internalNodes>
          <leafValues>
            2.2435674071311951e-01 -3.9672279357910156e-01</leafValues></_>
        <_>
          <internalNodes>
            0 -1 136 -1.4897102118993644e-05</internalNodes>
          <leafValues>
            3.1327345967292786e-01 -2.8796195983886719e-01</leafValues></_>
        <_>
          <internalNodes>
            0 -1 254 1.8253553425893188e-03</internalNodes>
          <leafValues>
            1.9243803620338440e-01 -4.8391735553741455e-01</leafValues></_>
        <_>
          <internalNodes>
            0 -1 89 -1.4046780961507466e-05</internalNodes>
          <leafValues>
            3.8469743728637695e-01 -2.4249219894409180e-01</leafValues></_>
        <_>
          <internalNodes>
            0 -1 89 1.6216268704738468e-05</internalNodes>
          <leafValues>
            -2.9237970709800720e-01 3.8019409775733948e-01</leafValues></_>
        <_>
          <internalNodes>
            0 -1 269 8.8889966718852520e-04</internalNodes>
          <leafValues>
            1.2713889777660370e-01 -6.5408462285995483e-01</leafValues></_>
        <_>
          <internalNodes>
            0 -1 393 1.4166322216624394e-05</internalNodes>
          <leafValues>
            -2.6665535569190979e-01 3.6069002747535706e-01</leafValues></_>
        <_>
          <internalNodes>
            0 -1 217 3.9250473491847515e-03</internalNodes>
          <leafValues>
            -1.6418649256229401e-01 5.5675673484802246e-01</leafValues></_></weakClassifiers></_>
    <!-- stage 9 -->
    <_>
      <maxWeakCount>10</maxWeakCount>
      <stageThreshold>-6.4383840560913086e-01</stageThreshold>
      <weakClassifiers>
        <_>
          <internalNodes>
            0 -1 328 7.1578682400286198e-04</internalNodes>
          <leafValues>
            2.5987526774406433e-01 -5.2763819694519043e-01</leafValues></_>
        <_>
          <internalNodes>
            0 -1 23 5.2210898138582706e-04</internalNodes>
          <leafValues>
            1.6813534498214722e-01 -6.4968234300613403e-01</leafValues></_>
        <_>
          <internalNodes>
            0 -1 12 -2.5363868474960327e-01</internalNodes>
          <leafValues>
            5.2288049459457397e-01 -1.8732002377510071e-01</leafValues></_>
        <_>
          <internalNodes>
            0 -1 261 -3.2260343432426453e-03</internalNodes>
          <leafValues>
            -7.9471302032470703e-01 1.2677198648452759e-01</leafValues></_>
        <_>
          <internalNodes>
            0 -1 218 1.3649982865899801e-03</internalNodes>
          <leafValues>
            -1.5278267860412598e-01 6.9000566005706787e-01</leafValues></_>
        <_>
          <internalNodes>
            0 -1 263 -2.0829248242080212e-03</internalNodes>
          <leafValues>
            -4.8990836739540100e-01 2.1442168951034546e-01</leafValues></_>
        <_>
          <internalNodes>
            0 -1 299 2.5663161650300026e-03</internalNodes>
          <leafValues>
            1.8664112687110901e-01 -6.4466834068298340e-01</leafValues></_>
        <_>
          <internalNodes>
            0 -1 143 -1.7588179558515549e-02</internalNodes>
          <leafValues>
            7.7421784400939941e-01 -1.6574861109256744e-01</leafValues></_>
        <_>
          <internalNodes>
            0 -1 395 -2.8531742282211781e-03</internalNodes>
          <leafValues>
            -7.4129110574722290e-01 1.6919560730457306e-01</leafValues></_>
        <_>
          <internalNodes>
            0 -1 151 -1.2596212327480316e-02</internalNodes>
          <leafValues>
            4.7092962265014648e-01 -2.2043418884277344e-01</leafValues></_></weakClassifiers></_>
    <!-- stage 10 -->
    <_>
      <maxWeakCount>17</maxWeakCount>
      <stageThreshold>-8.2038480043411255e-01</stageThreshold>
      <weakClassifiers>
        <_>
          <internalNodes>
            0 -1 163 -2.1929550915956497e-02</internalNodes>
          <leafValues>
            4.1528239846229553e-01 -2.7704486250877380e-01</leafValues></_>
        <_>
          <internalNodes>
            0 -1 243 -5.3199571557343006e-03</internalNodes>
          <leafValues>
            -7.9956889152526855e-01 1.1051639914512634e-01</leafValues></_>
        <_>
          <internalNodes>
            0 -1 131 -2.8569828718900681e-02</internalNodes>
          <leafValues>
            5.1017391681671143e-01 -1.5130825340747833e-01</leafValues></_>
        <_>
          <internalNodes>
            0 -1 125 -8.1905506551265717e-02</internalNodes>
          <leafValues>
            6.5926861763000488e-01 -1.6514255106449127e-01</leafValues></_>
        <_>
          <internalNodes>
            0 -1 390 -1.8522462341934443e-03</internalNodes>
          <leafValues>
            -5.7664901018142700e-01 1.5365262329578400e-01</leafValues></_>
        <_>
          <internalNodes>
            0 -1 210 -1.3248314149677753e-02</internalNodes>
          <leafValues>
            -5.8696198463439941e-01 1.2977290153503418e-01</leafValues></_>
        <_>
          <internalNodes>
            0 -1 281 1.0207046288996935e-03</internalNodes>
          <leafValues>
            -1.7523190379142761e-01 6.3191598653793335e-01</leafValues></_>
        <_>
          <internalNodes>
            0 -1 3 1.2787051964551210e-03</internalNodes>
          <leafValues>
            2.1562190353870392e-01 -4.3624404072761536e-01</leafValues></_>
        <_>
          <internalNodes>
            0 -1 203 -1.3474535197019577e-02</internalNodes>
          <leafValues>
            6.8333965539932251e-01 -1.6347053647041321e-01</leafValues></_>
        <_>
          <internalNodes>
            0 -1 4 -2.3211687803268433e-03</internalNodes>
          <leafValues>
            -5.1235073804855347e-01 2.0578837394714355e-01</leafValues></_>
        <_>
          <internalNodes>
            0 -1 391 1.4907090189808514e-05</internalNodes>
          <leafValues>
            -2.3874077200889587e-01 3.7891972064971924e-01</leafValues></_>
        <_>
          <internalNodes>
            0 -1 122 2.8642457909882069e-03</internalNodes>
          <leafValues>
            -1.5847738087177277e-01 6.4199197292327881e-01</leafValues></_>
        <_>
          <internalNodes>
            0 -1 300 -9.4199776649475098e-03</internalNodes>
          <leafValues>
            2.1201027929782867e-01 -4.2099532485008240e-01</leafValues></_>
        <_>
          <internalNodes>
            0 -1 15 -1.6293550288537517e-05</internalNodes>
          <leafValues>
            3.1401816010475159e-01 -2.6968362927436829e-01</leafValues></_>
        <_>
          <internalNodes>
            0 -1 279 6.5022159833461046e-04</internalNodes>
          <leafValues>
            -2.7094411849975586e-01 3.7543070316314697e-01</leafValues></_>
        <_>
          <internalNodes>
            0 -1 415 -8.8959740241989493e-04</internalNodes>
          <leafValues>
            -8.7447869777679443e-01 9.5444291830062866e-02</leafValues></_>
        <_>
          <internalNodes>
            0 -1 291 4.7688093036413193e-03</internalNodes>
          <leafValues>
            -1.5251486003398895e-01 6.4419263601303101e-01</leafValues></_></weakClassifiers></_>
    <!-- stage 11 -->
    <_>
      <maxWeakCount>15</maxWeakCount>
      <stageThreshold>-8.3643645048141479e-01</stageThreshold>
      <weakClassifiers>
        <_>
          <internalNodes>
            0 -1 92 6.7689414136111736e-03</internalNodes>
          <leafValues>
            1.9619047641754150e-01 -5.3548389673233032e-01</leafValues></_>
        <_>
          <internalNodes>
            0 -1 44 1.3986064586788416e-03</internalNodes>
          <leafValues>
            1.0829674452543259e-01 -7.7232444286346436e-01</leafValues></_>
        <_>
          <internalNodes>
            0 -1 230 1.4568557962775230e-03</internalNodes>
          <leafValues>
            -1.6029460728168488e-01 5.8057969808578491e-01</leafValues></_>
        <_>
          <internalNodes>
            0 -1 385 1.5507967211306095e-02</internalNodes>
          <leafValues>
            -1.0056208819150925e-01 7.4314290285110474e-01</leafValues></_>
        <_>
          <internalNodes>
            0 -1 153 1.4169260859489441e-02</internalNodes>
          <leafValues>
            -1.5658301115036011e-01 5.0585848093032837e-01</leafValues></_>
        <_>
          <internalNodes>
            0 -1 413 -3.5593630746006966e-03</internalNodes>
          <leafValues>
            -5.9627598524093628e-01 1.5031261742115021e-01</leafValues></_>
        <_>
          <internalNodes>
            0 -1 21 -1.7452679574489594e-02</internalNodes>
          <leafValues>
            5.5728882551193237e-01 -1.5298181772232056e-01</leafValues></_>
        <_>
          <internalNodes>
            0 -1 178 -3.7431120872497559e-02</internalNodes>
          <leafValues>
            -8.5044056177139282e-01 1.0342454910278320e-01</leafValues></_>
        <_>
          <internalNodes>
            0 -1 318 1.3094099704176188e-03</internalNodes>
          <leafValues>
            -2.0188920199871063e-01 4.1392806172370911e-01</leafValues></_>
        <_>
          <internalNodes>
            0 -1 61 -2.8330970089882612e-03</internalNodes>
          <leafValues>
            -6.2204515933990479e-01 1.5582786500453949e-01</leafValues></_>
        <_>
          <internalNodes>
            0 -1 260 -6.9972162600606680e-04</internalNodes>
          <leafValues>
            3.1188195943832397e-01 -2.6810091733932495e-01</leafValues></_>
        <_>
          <internalNodes>
            0 -1 351 1.6179138328880072e-03</internalNodes>
          <leafValues>
            -2.8905102610588074e-01 3.3382520079612732e-01</leafValues></_>
        <_>
          <internalNodes>
            0 -1 334 2.0564025908242911e-04</internalNodes>
          <leafValues>
            2.0432347059249878e-01 -4.6271193027496338e-01</leafValues></_>
        <_>
          <internalNodes>
            0 -1 326 -2.9342900961637497e-04</internalNodes>
          <leafValues>
            -5.3796553611755371e-01 1.3302055001258850e-01</leafValues></_>
        <_>
          <internalNodes>
            0 -1 253 8.4343388152774423e-05</internalNodes>
          <leafValues>
            -2.7264687418937683e-01 3.7346923351287842e-01</leafValues></_></weakClassifiers></_>
    <!-- stage 12 -->
    <_>
      <maxWeakCount>18</maxWeakCount>
      <stageThreshold>-7.6450204849243164e-01</stageThreshold>
      <weakClassifiers>
        <_>
          <internalNodes>
            0 -1 69 1.4853042364120483e-01</internalNodes>
          <leafValues>
            -1.0088495910167694e-01 6.6956520080566406e-01</leafValues></_>
        <_>
          <internalNodes>
            0 -1 115 -5.7602478191256523e-03</internalNodes>
          <leafValues>
            4.3473047018051147e-01 -1.5062114596366882e-01</leafValues></_>
        <_>
          <internalNodes>
            0 -1 276 3.3763244282454252e-03</internalNodes>
          <leafValues>
            -1.1782490462064743e-01 6.6404342651367188e-01</leafValues></_>
        <_>
          <internalNodes>
            0 -1 278 1.2601477465068456e-05</internalNodes>
          <leafValues>
            -2.5313138961791992e-01 3.1203702092170715e-01</leafValues></_>
        <_>
          <internalNodes>
            0 -1 247 -1.2884116586064920e-05</internalNodes>
          <leafValues>
            2.8481549024581909e-01 -2.7815186977386475e-01</leafValues></_>
        <_>
          <internalNodes>
            0 -1 364 -1.4494797142106108e-05</internalNodes>
          <leafValues>
            3.6060377955436707e-01 -2.5483149290084839e-01</leafValues></_>
        <_>
          <internalNodes>
            0 -1 355 5.3635973017662764e-04</internalNodes>
          <leafValues>
            2.0482197403907776e-01 -3.9509755373001099e-01</leafValues></_>
        <_>
          <internalNodes>
            0 -1 347 -2.2645951248705387e-03</internalNodes>
          <leafValues>
            -6.8415915966033936e-01 1.3407617807388306e-01</leafValues></_>
        <_>
          <internalNodes>
            0 -1 113 4.8744408413767815e-03</internalNodes>
          <leafValues>
            -1.4806629717350006e-01 4.9979972839355469e-01</leafValues></_>
        <_>
          <internalNodes>
            0 -1 1 2.7738092467188835e-03</internalNodes>
          <leafValues>
            1.5715025365352631e-01 -5.8957809209823608e-01</leafValues></_>
        <_>
          <internalNodes>
            0 -1 255 2.0158640109002590e-03</internalNodes>
          <leafValues>
            -1.3075642287731171e-01 6.9599235057830811e-01</leafValues></_>
        <_>
          <internalNodes>
            0 -1 292 4.1204248555004597e-03</internalNodes>
          <leafValues>
            -1.1801370233297348e-01 6.5688145160675049e-01</leafValues></_>
        <_>
          <internalNodes>
            0 -1 162 -1.9730727217392996e-05</internalNodes>
          <leafValues>
            2.8003937005996704e-01 -2.6185157895088196e-01</leafValues></_>
        <_>
          <internalNodes>
            0 -1 152 2.9837150126695633e-02</internalNodes>
          <leafValues>
            -9.1874025762081146e-02 7.8262221813201904e-01</leafValues></_>
        <_>
          <internalNodes>
            0 -1 242 -3.3208066597580910e-03</internalNodes>
          <leafValues>
            -9.2655730247497559e-01 9.9296599626541138e-02</leafValues></_>
        <_>
          <internalNodes>
            0 -1 215 1.4760510995984077e-02</internalNodes>
          <leafValues>
            1.5647472441196442e-01 -4.6685343980789185e-01</leafValues></_>
        <_>
          <internalNodes>
            0 -1 161 -7.5532170012593269e-04</internalNodes>
          <leafValues>
            -4.1766595840454102e-01 1.8202647566795349e-01</leafValues></_>
        <_>
          <internalNodes>
            0 -1 182 -6.9352774880826473e-04</internalNodes>
          <leafValues>
            4.1625031828880310e-01 -1.8859755992889404e-01</leafValues></_></weakClassifiers></_>
    <!-- stage 13 -->
    <_>
      <maxWeakCount>17</maxWeakCount>
      <stageThreshold>-8.9541941881179810e-01</stageThreshold>
      <weakClassifiers>
        <_>
          <internalNodes>
            0 -1 360 1.0638877749443054e-02</internalNodes>
          <leafValues>
            -3.1832796335220337e-01 3.2249322533607483e-01</leafValues></_>
        <_>
          <internalNodes>
            0 -1 404 -3.4686355502344668e-04</internalNodes>
          <leafValues>
            -5.5894041061401367e-01 1.2283238023519516e-01</leafValues></_>
        <_>
          <internalNodes>
            0 -1 241 6.7886878969147801e-04</internalNodes>
          <leafValues>
            1.5979398787021637e-01 -5.3820139169692993e-01</leafValues></_>
        <_>
          <internalNodes>
            0 -1 214 -5.0299344584345818e-03</internalNodes>
          <leafValues>
            6.5375977754592896e-01 -1.3108359277248383e-01</leafValues></_>
        <_>
          <internalNodes>
            0 -1 108 -4.9919326556846499e-05</internalNodes>
          <leafValues>
            2.6606181263923645e-01 -3.1199198961257935e-01</leafValues></_>
        <_>
          <internalNodes>
            0 -1 342 -7.1611991152167320e-03</internalNodes>
          <leafValues>
            -5.1952815055847168e-01 1.8644429743289948e-01</leafValues></_>
        <_>
          <internalNodes>
            0 -1 96 -4.9716472625732422e-02</internalNodes>
          <leafValues>
            4.6400973200798035e-01 -2.1335649490356445e-01</leafValues></_>
        <_>
          <internalNodes>
            0 -1 124 1.5774864703416824e-02</internalNodes>
          <leafValues>
            -2.3751357197761536e-01 4.0938535332679749e-01</leafValues></_>
        <_>
          <internalNodes>
            0 -1 105 -2.7536095585674047e-03</internalNodes>
          <leafValues>
            5.8830422163009644e-01 -1.1219116300344467e-01</leafValues></_>
        <_>
          <internalNodes>
            0 -1 287 -7.0051325019448996e-04</internalNodes>
          <leafValues>
            3.9136680960655212e-01 -1.9056388735771179e-01</leafValues></_>
        <_>
          <internalNodes>
            0 -1 231 1.4263491611927748e-03</internalNodes>
          <leafValues>
            -1.9783537089824677e-01 4.2821916937828064e-01</leafValues></_>
        <_>
          <internalNodes>
            0 -1 396 5.9847405645996332e-04</internalNodes>
          <leafValues>
            1.5761770308017731e-01 -6.1555117368698120e-01</leafValues></_>
        <_>
          <internalNodes>
            0 -1 223 6.8727336823940277e-02</internalNodes>
          <leafValues>
            -1.7067626118659973e-01 6.3252508640289307e-01</leafValues></_>
        <_>
          <internalNodes>
            0 -1 221 -2.9095428064465523e-02</internalNodes>
          <leafValues>
            5.7967507839202881e-01 -1.3996161520481110e-01</leafValues></_>
        <_>
          <internalNodes>
            0 -1 63 1.4045601710677147e-02</internalNodes>
          <leafValues>
            -1.6128703951835632e-01 4.8799359798431396e-01</leafValues></_>
        <_>
          <internalNodes>
            0 -1 421 -1.1689498787745833e-03</internalNodes>
          <leafValues>
            -4.6585071086883545e-01 2.0369373261928558e-01</leafValues></_>
        <_>
          <internalNodes>
            0 -1 417 1.6228014137595892e-03</internalNodes>
          <leafValues>
            1.4353217184543610e-01 -5.4501968622207642e-01</leafValues></_></weakClassifiers></_>
    <!-- stage 14 -->
    <_>
      <maxWeakCount>20</maxWeakCount>
      <stageThreshold>-7.4323499202728271e-01</stageThreshold>
      <weakClassifiers>
        <_>
          <internalNodes>
            0 -1 142 -8.5650190711021423e-02</internalNodes>
          <leafValues>
            2.5768321752548218e-01 -3.4630349278450012e-01</leafValues></_>
        <_>
          <internalNodes>
            0 -1 34 -2.7473471127450466e-03</internalNodes>
          <leafValues>
            -6.1722236871719360e-01 1.2769387662410736e-01</leafValues></_>
        <_>
          <internalNodes>
            0 -1 93 -4.3233290314674377e-02</internalNodes>
          <leafValues>
            6.7833679914474487e-01 -8.6318045854568481e-02</leafValues></_>
        <_>
          <internalNodes>
            0 -1 127 -1.3982097618281841e-02</internalNodes>
          <leafValues>
            3.7409299612045288e-01 -2.1539333462715149e-01</leafValues></_>
        <_>
          <internalNodes>
            0 -1 262 -3.2196408137679100e-03</internalNodes>
          <leafValues>
            -6.0603064298629761e-01 1.8683892488479614e-01</leafValues></_>
        <_>
          <internalNodes>
            0 -1 181 -2.6692673563957214e-03</internalNodes>
          <leafValues>
            -4.2404955625534058e-01 1.8430639803409576e-01</leafValues></_>
        <_>
          <internalNodes>
            0 -1 346 2.0345639437437057e-02</internalNodes>
          <leafValues>
            -1.8285323679447174e-01 4.5634672045707703e-01</leafValues></_>
        <_>
          <internalNodes>
            0 -1 41 2.6456201449036598e-03</internalNodes>
          <leafValues>
            2.0555002987384796e-01 -4.3867090344429016e-01</leafValues></_>
        <_>
          <internalNodes>
            0 -1 156 -2.9300630558282137e-05</internalNodes>
          <leafValues>
            2.8495392203330994e-01 -2.8755167126655579e-01</leafValues></_>
        <_>
          <internalNodes>
            0 -1 88 -2.9017718043178320e-04</internalNodes>
          <leafValues>
            -3.8942357897758484e-01 1.7926573753356934e-01</leafValues></_>
        <_>
          <internalNodes>
            0 -1 325 1.6866299120010808e-05</internalNodes>
          <leafValues>
            -2.4448750913143158e-01 2.9599055647850037e-01</leafValues></_>
        <_>
          <internalNodes>
            0 -1 2 4.2629726231098175e-03</internalNodes>
          <leafValues>
            7.4706032872200012e-02 -8.1854349374771118e-01</leafValues></_>
        <_>
          <internalNodes>
            0 -1 49 -1.3956825248897076e-02</internalNodes>
          <leafValues>
            4.8753201961517334e-01 -1.5428481996059418e-01</leafValues></_>
        <_>
          <internalNodes>
            0 -1 130 4.2839609086513519e-03</internalNodes>
          <leafValues>
            -8.1610657274723053e-02 7.4283438920974731e-01</leafValues></_>
        <_>
          <internalNodes>
            0 -1 369 -3.5754162818193436e-03</internalNodes>
          <leafValues>
            -5.7910102605819702e-01 1.3158932328224182e-01</leafValues></_>
        <_>
          <internalNodes>
            0 -1 399 -5.5590393021702766e-03</internalNodes>
          <leafValues>
            6.2186336517333984e-01 -1.3114331662654877e-01</leafValues></_>
        <_>
          <internalNodes>
            0 -1 257 5.1418459042906761e-03</internalNodes>
          <leafValues>
            -2.4301603436470032e-01 2.9728931188583374e-01</leafValues></_>
        <_>
          <internalNodes>
            0 -1 190 2.0130127668380737e-03</internalNodes>
          <leafValues>
            -2.2994917631149292e-01 3.4377568960189819e-01</leafValues></_>
        <_>
          <internalNodes>
            0 -1 186 4.2561633745208383e-04</internalNodes>
          <leafValues>
            1.3476853072643280e-01 -5.1920896768569946e-01</leafValues></_>
        <_>
          <internalNodes>
            0 -1 101 -6.1766326427459717e-02</internalNodes>
          <leafValues>
            8.3670622110366821e-01 -9.3922287225723267e-02</leafValues></_></weakClassifiers></_>
    <!-- stage 15 -->
    <_>
      <maxWeakCount>15</maxWeakCount>
      <stageThreshold>-9.2365980148315430e-01</stageThreshold>
      <weakClassifiers>
        <_>
          <internalNodes>
            0 -1 9 -1.8140807747840881e-01</internalNodes>
          <leafValues>
            4.1353383660316467e-01 -2.1739129722118378e-01</leafValues></_>
        <_>
          <internalNodes>
            0 -1 0 -3.7079112371429801e-04</internalNodes>
          <leafValues>
            -5.0932365655899048e-01 1.5416689217090607e-01</leafValues></_>
        <_>
          <internalNodes>
            0 -1 338 -9.6513613243587315e-05</internalNodes>
          <leafValues>
            3.6569875478744507e-01 -2.0604740083217621e-01</leafValues></_>
        <_>
          <internalNodes>
            0 -1 411 1.1381076183170080e-03</internalNodes>
          <leafValues>
            1.0770079493522644e-01 -5.3601258993148804e-01</leafValues></_>
        <_>
          <internalNodes>
            0 -1 6 2.2763016168028116e-03</internalNodes>
          <leafValues>
            1.8408603966236115e-01 -4.1930723190307617e-01</leafValues></_>
        <_>
          <internalNodes>
            0 -1 68 -1.0374364443123341e-02</internalNodes>
          <leafValues>
            6.1556875705718994e-01 -1.0096470266580582e-01</leafValues></_>
        <_>
          <internalNodes>
            0 -1 184 4.7492841258645058e-03</internalNodes>
          <leafValues>
            -1.6180686652660370e-01 4.4437557458877563e-01</leafValues></_>
        <_>
          <internalNodes>
            0 -1 361 -5.3014685399830341e-03</internalNodes>
          <leafValues>
            4.3246081471443176e-01 -1.7934776842594147e-01</leafValues></_>
        <_>
          <internalNodes>
            0 -1 355 6.5583764808252454e-04</internalNodes>
          <leafValues>
            2.0042072236537933e-01 -4.2124304175376892e-01</leafValues></_>
        <_>
          <internalNodes>
            0 -1 316 3.0631934350822121e-05</internalNodes>
          <leafValues>
            -2.3218604922294617e-01 3.4710264205932617e-01</leafValues></_>
        <_>
          <internalNodes>
            0 -1 284 -6.0522571206092834e-02</internalNodes>
          <leafValues>
            6.5802639722824097e-01 -1.3296207785606384e-01</leafValues></_>
        <_>
          <internalNodes>
            0 -1 195 -8.6466476321220398e-02</internalNodes>
          <leafValues>
            6.3403576612472534e-01 -1.2301909178495407e-01</leafValues></_>
        <_>
          <internalNodes>
            0 -1 272 7.4042112100869417e-04</internalNodes>
          <leafValues>
            1.9575658440589905e-01 -4.7183546423912048e-01</leafValues></_>
        <_>
          <internalNodes>
            0 -1 31 8.1758014857769012e-02</internalNodes>
          <leafValues>
            -1.7952981591224670e-01 5.3855556249618530e-01</leafValues></_>
        <_>
          <internalNodes>
            0 -1 229 -1.6733642041799612e-05</internalNodes>
          <leafValues>
            3.4596550464630127e-01 -2.3253576457500458e-01</leafValues></_></weakClassifiers></_>
    <!-- stage 16 -->
    <_>
      <maxWeakCount>19</maxWeakCount>
      <stageThreshold>-7.6296669244766235e-01</stageThreshold>
      <weakClassifiers>
        <_>
          <internalNodes>
            0 -1 275 3.0398545786738396e-03</internalNodes>
          <leafValues>
            -1.7727272212505341e-01 4.0833333134651184e-01</leafValues></_>
        <_>
          <internalNodes>
            0 -1 359 2.0103860646486282e-02</internalNodes>
          <leafValues>
            -2.4807032942771912e-01 3.3343139290809631e-01</leafValues></_>
        <_>
          <internalNodes>
            0 -1 147 -7.5875956099480391e-04</internalNodes>
          <leafValues>
            3.2345798611640930e-01 -1.9477924704551697e-01</leafValues></_>
        <_>
          <internalNodes>
            0 -1 330 1.1538065969944000e-02</internalNodes>
          <leafValues>
            -2.1504326164722443e-01 3.7165668606758118e-01</leafValues></_>
        <_>
          <internalNodes>
            0 -1 294 1.5883073210716248e-02</internalNodes>
          <leafValues>
            -1.1859748512506485e-01 6.9000464677810669e-01</leafValues></_>
        <_>
          <internalNodes>
            0 -1 25 -1.5313008800148964e-02</internalNodes>
          <leafValues>
            2.6999631524085999e-01 -2.8812479972839355e-01</leafValues></_>
        <_>
          <internalNodes>
            0 -1 308 2.3766938829794526e-04</internalNodes>
          <leafValues>
            2.4379655718803406e-01 -2.8956741094589233e-01</leafValues></_>
        <_>
          <internalNodes>
            0 -1 368 -9.1086214524693787e-05</internalNodes>
          <leafValues>
            3.2130762934684753e-01 -2.0983636379241943e-01</leafValues></_>
        <_>
          <internalNodes>
            0 -1 106 -1.1423417925834656e-01</internalNodes>
          <leafValues>
            -6.2262916564941406e-01 1.3863326609134674e-01</leafValues></_>
        <_>
          <internalNodes>
            0 -1 343 -9.6654862863942981e-04</internalNodes>
          <leafValues>
            -5.8799022436141968e-01 7.9695127904415131e-02</leafValues></_>
        <_>
          <internalNodes>
            0 -1 95 1.1828958522528410e-03</internalNodes>
          <leafValues>
            -1.1255712062120438e-01 7.1338474750518799e-01</leafValues></_>
        <_>
          <internalNodes>
            0 -1 67 2.6575320589472540e-05</internalNodes>
          <leafValues>
            -2.1426786482334137e-01 3.4816569089889526e-01</leafValues></_>
        <_>
          <internalNodes>
            0 -1 91 -7.1358857676386833e-03</internalNodes>
          <leafValues>
            4.1975709795951843e-01 -2.2258900105953217e-01</leafValues></_>
        <_>
          <internalNodes>
            0 -1 348 -6.8717077374458313e-03</internalNodes>
          <leafValues>
            7.9036092758178711e-01 -8.4392853081226349e-02</leafValues></_>
        <_>
          <internalNodes>
            0 -1 2 -3.2470561563968658e-03</internalNodes>
          <leafValues>
            -8.0849575996398926e-01 1.1526315659284592e-01</leafValues></_>
        <_>
          <internalNodes>
            0 -1 137 1.2088760267943144e-03</internalNodes>
          <leafValues>
            -1.4922343194484711e-01 6.7232638597488403e-01</leafValues></_>
        <_>
          <internalNodes>
            0 -1 187 -1.2093303666915745e-04</internalNodes>
          <leafValues>
            3.1129544973373413e-01 -2.6110261678695679e-01</leafValues></_>
        <_>
          <internalNodes>
            0 -1 133 -1.1481618508696556e-02</internalNodes>
          <leafValues>
            -9.1070055961608887e-01 6.9069661200046539e-02</leafValues></_>
        <_>
          <internalNodes>
            0 -1 313 3.6894809454679489e-03</internalNodes>
          <leafValues>
            7.6782755553722382e-02 -7.3997753858566284e-01</leafValues></_></weakClassifiers></_>
    <!-- stage 17 -->
    <_>
      <maxWeakCount>18</maxWeakCount>
      <stageThreshold>-7.3086112737655640e-01</stageThreshold>
      <weakClassifiers>
        <_>
          <internalNodes>
            0 -1 416 1.3572860552812926e-05</internalNodes>
          <leafValues>
            -2.3893804848194122e-01 2.9618766903877258e-01</leafValues></_>
        <_>
          <internalNodes>
            0 -1 386 -3.4565792884677649e-03</internalNodes>
          <leafValues>
            4.3470484018325806e-01 -1.5187929570674896e-01</leafValues></_>
        <_>
          <internalNodes>
            0 -1 336 -1.9679987803101540e-02</internalNodes>
          <leafValues>
            4.7682306170463562e-01 -1.2719726562500000e-01</leafValues></_>
        <_>
          <internalNodes>
            0 -1 71 -9.4066739082336426e-02</internalNodes>
          <leafValues>
            4.9188482761383057e-01 -1.5285769104957581e-01</leafValues></_>
        <_>
          <internalNodes>
            0 -1 168 -1.4873141422867775e-02</internalNodes>
          <leafValues>
            3.5501968860626221e-01 -1.8496608734130859e-01</leafValues></_>
        <_>
          <internalNodes>
            0 -1 317 -3.4530896227806807e-03</internalNodes>
          <leafValues>
            -5.9253656864166260e-01 9.8402157425880432e-02</leafValues></_>
        <_>
          <internalNodes>
            0 -1 295 2.9165108571760356e-05</internalNodes>
          <leafValues>
            -2.0214229822158813e-01 3.4774577617645264e-01</leafValues></_>
        <_>
          <internalNodes>
            0 -1 319 -4.0378689765930176e-02</internalNodes>
          <leafValues>
            -9.0397191047668457e-01 1.0790742933750153e-01</leafValues></_>
        <_>
          <internalNodes>
            0 -1 392 1.3968443454359658e-05</internalNodes>
          <leafValues>
            -2.4211828410625458e-01 3.5137817263603210e-01</leafValues></_>
        <_>
          <internalNodes>
            0 -1 398 1.9871373660862446e-03</internalNodes>
          <leafValues>
            -2.3052175343036652e-01 3.3047214150428772e-01</leafValues></_>
        <_>
          <internalNodes>
            0 -1 77 3.1412817537784576e-02</internalNodes>
          <leafValues>
            -7.6863922178745270e-02 6.3308686017990112e-01</leafValues></_>
        <_>
          <internalNodes>
            0 -1 376 2.1987967193126678e-03</internalNodes>
          <leafValues>
            -1.1450017988681793e-01 7.1152991056442261e-01</leafValues></_>
        <_>
          <internalNodes>
            0 -1 46 2.6266041677445173e-03</internalNodes>
          <leafValues>
            1.2233636528253555e-01 -6.4558821916580200e-01</leafValues></_>
        <_>
          <internalNodes>
            0 -1 42 2.9346696101129055e-04</internalNodes>
          <leafValues>
            -1.9164249300956726e-01 3.6836665868759155e-01</leafValues></_>
        <_>
          <internalNodes>
            0 -1 409 -2.1825309377163649e-03</internalNodes>
          <leafValues>
            -5.2282446622848511e-01 1.4896491169929504e-01</leafValues></_>
        <_>
          <internalNodes>
            0 -1 293 5.2774143405258656e-03</internalNodes>
          <leafValues>
            -1.4641405642032623e-01 5.2771574258804321e-01</leafValues></_>
        <_>
          <internalNodes>
            0 -1 13 1.0321516310796142e-04</internalNodes>
          <leafValues>
            -2.1346035599708557e-01 3.1334885954856873e-01</leafValues></_>
        <_>
          <internalNodes>
            0 -1 408 2.3932536132633686e-03</internalNodes>
          <leafValues>
            1.0510074347257614e-01 -6.4311957359313965e-01</leafValues></_></weakClassifiers></_>
    <!-- stage 18 -->
    <_>
      <maxWeakCount>20</maxWeakCount>
      <stageThreshold>-9.0260201692581177e-01</stageThreshold>
      <weakClassifiers>
        <_>
          <internalNodes>
            0 -1 290 4.5255938312038779e-04</internalNodes>
          <leafValues>
            1.6730037331581116e-01 -4.4155845046043396e-01</leafValues></_>
        <_>
          <internalNodes>
            0 -1 232 -3.1281404662877321e-03</internalNodes>
          <leafValues>
            4.6822181344032288e-01 -1.5808023512363434e-01</leafValues></_>
        <_>
          <internalNodes>
            0 -1 40 4.9415171146392822e-02</internalNodes>
          <leafValues>
            7.3873363435268402e-02 -8.3264738321304321e-01</leafValues></_>
        <_>
          <internalNodes>
            0 -1 322 -6.8750120699405670e-03</internalNodes>
          <leafValues>
            8.2012116909027100e-01 -6.6489621996879578e-02</leafValues></_>
        <_>
          <internalNodes>
            0 -1 329 -2.7065429836511612e-02</internalNodes>
          <leafValues>
            4.8547491431236267e-01 -1.3941928744316101e-01</leafValues></_>
        <_>
          <internalNodes>
            0 -1 183 -1.9983150064945221e-02</internalNodes>
          <leafValues>
            4.0647146105766296e-01 -1.6898310184478760e-01</leafValues></_>
        <_>
          <internalNodes>
            0 -1 419 -2.3082946427166462e-03</internalNodes>
          <leafValues>
            -5.8663439750671387e-01 1.3984847068786621e-01</leafValues></_>
        <_>
          <internalNodes>
            0 -1 175 -1.1180479079484940e-02</internalNodes>
          <leafValues>
            -7.3490172624588013e-01 6.4170859754085541e-02</leafValues></_>
        <_>
          <internalNodes>
            0 -1 220 -7.1213264018297195e-03</internalNodes>
          <leafValues>
            5.7477229833602905e-01 -1.2297661602497101e-01</leafValues></_>
        <_>
          <internalNodes>
            0 -1 305 9.9408591631799936e-04</internalNodes>
          <leafValues>
            1.4507697522640228e-01 -5.9101259708404541e-01</leafValues></_>
        <_>
          <internalNodes>
            0 -1 233 1.5464927855646238e-05</internalNodes>
          <leafValues>
            -2.5201451778411865e-01 2.8693270683288574e-01</leafValues></_>
        <_>
          <internalNodes>
            0 -1 193 -3.8624736480414867e-03</internalNodes>
          <leafValues>
            5.1945924758911133e-01 -1.5632694959640503e-01</leafValues></_>
        <_>
          <internalNodes>
            0 -1 357 9.1399255325086415e-05</internalNodes>
          <leafValues>
            -1.8615776300430298e-01 3.4530925750732422e-01</leafValues></_>
        <_>
          <internalNodes>
            0 -1 198 3.2646342879161239e-04</internalNodes>
          <leafValues>
            2.2642175853252411e-01 -3.0544015765190125e-01</leafValues></_>
        <_>
          <internalNodes>
            0 -1 362 -3.8727492094039917e-02</internalNodes>
          <leafValues>
            6.3358390331268311e-01 -1.3279967010021210e-01</leafValues></_>
        <_>
          <internalNodes>
            0 -1 288 -2.7797374059446156e-05</internalNodes>
          <leafValues>
            2.3185540735721588e-01 -3.0321043729782104e-01</leafValues></_>
        <_>
          <internalNodes>
            0 -1 414 -3.0126187994028442e-05</internalNodes>
          <leafValues>
            3.3977973461151123e-01 -2.2852149605751038e-01</leafValues></_>
        <_>
          <internalNodes>
            0 -1 402 -1.4313442079583183e-05</internalNodes>
          <leafValues>
            2.7023714780807495e-01 -2.3304028809070587e-01</leafValues></_>
        <_>
          <internalNodes>
            0 -1 344 -3.0947127379477024e-04</internalNodes>
          <leafValues>
            -4.4849550724029541e-01 1.5466894209384918e-01</leafValues></_>
        <_>
          <internalNodes>
            0 -1 209 8.7108062580227852e-03</internalNodes>
          <leafValues>
            1.8713936209678650e-01 -3.3783668279647827e-01</leafValues></_></weakClassifiers></_>
    <!-- stage 19 -->
    <_>
      <maxWeakCount>18</maxWeakCount>
      <stageThreshold>-8.4395015239715576e-01</stageThreshold>
      <weakClassifiers>
        <_>
          <internalNodes>
            0 -1 150 -2.1635923534631729e-02</internalNodes>
          <leafValues>
            3.0313590168952942e-01 -2.2866894304752350e-01</leafValues></_>
        <_>
          <internalNodes>
            0 -1 236 -1.4672497287392616e-02</internalNodes>
          <leafValues>
            2.1271100640296936e-01 -3.2945990562438965e-01</leafValues></_>
        <_>
          <internalNodes>
            0 -1 26 -6.1661349609494209e-03</internalNodes>
          <leafValues>
            6.0999101400375366e-01 -1.0744459927082062e-01</leafValues></_>
        <_>
          <internalNodes>
            0 -1 297 6.7117447033524513e-03</internalNodes>
          <leafValues>
            8.0712996423244476e-02 -8.9757168292999268e-01</leafValues></_>
        <_>
          <internalNodes>
            0 -1 252 -3.7162429653108120e-03</internalNodes>
          <leafValues>
            9.2777913808822632e-01 -1.0202648490667343e-01</leafValues></_>
        <_>
          <internalNodes>
            0 -1 174 4.3386023491621017e-02</internalNodes>
          <leafValues>
            1.7568784952163696e-01 -4.4475826621055603e-01</leafValues></_>
        <_>
          <internalNodes>
            0 -1 323 8.5120890289545059e-03</internalNodes>
          <leafValues>
            -8.2809478044509888e-02 7.7409130334854126e-01</leafValues></_>
        <_>
          <internalNodes>
            0 -1 116 2.5824946351349354e-03</internalNodes>
          <leafValues>
            1.6566120088100433e-01 -4.8363435268402100e-01</leafValues></_>
        <_>
          <internalNodes>
            0 -1 335 -6.6405218094587326e-03</internalNodes>
          <leafValues>
            8.2135993242263794e-01 -8.5864923894405365e-02</leafValues></_>
        <_>
          <internalNodes>
            0 -1 8 -1.8507401645183563e-01</internalNodes>
          <leafValues>
            4.8201251029968262e-01 -1.6421397030353546e-01</leafValues></_>
        <_>
          <internalNodes>
            0 -1 47 -1.1214740574359894e-02</internalNodes>
          <leafValues>
            -6.1228734254837036e-01 1.2993927299976349e-01</leafValues></_>
        <_>
          <internalNodes>
            0 -1 321 -1.4046780961507466e-05</internalNodes>
          <leafValues>
            2.8651869297027588e-01 -2.7105394005775452e-01</leafValues></_>
        <_>
          <internalNodes>
            0 -1 377 2.1171406842768192e-03</internalNodes>
          <leafValues>
            -1.3739205896854401e-01 4.8321437835693359e-01</leafValues></_>
        <_>
          <internalNodes>
            0 -1 237 -1.8059044377878308e-03</internalNodes>
          <leafValues>
            4.9657979607582092e-01 -1.3558751344680786e-01</leafValues></_>
        <_>
          <internalNodes>
            0 -1 201 -4.4679651036858559e-03</internalNodes>
          <leafValues>
            -8.1194108724594116e-01 8.6301848292350769e-02</leafValues></_>
        <_>
          <internalNodes>
            0 -1 121 7.0118473377078772e-04</internalNodes>
          <leafValues>
            -1.3179627060890198e-01 6.2729334831237793e-01</leafValues></_>
        <_>
          <internalNodes>
            0 -1 155 1.5466063632629812e-04</internalNodes>
          <leafValues>
            -2.5754499435424805e-01 2.8148013353347778e-01</leafValues></_>
        <_>
          <internalNodes>
            0 -1 239 3.9978604763746262e-03</internalNodes>
          <leafValues>
            1.1949815601110458e-01 -5.7809954881668091e-01</leafValues></_></weakClassifiers></_>
    <!-- stage 20 -->
    <_>
      <maxWeakCount>16</maxWeakCount>
      <stageThreshold>-6.2246328592300415e-01</stageThreshold>
      <weakClassifiers>
        <_>
          <internalNodes>
            0 -1 53 -5.2292756736278534e-02</internalNodes>
          <leafValues>
            3.0344828963279724e-01 -2.3448276519775391e-01</leafValues></_>
        <_>
          <internalNodes>
            0 -1 173 1.9492754712700844e-02</internalNodes>
          <leafValues>
            9.6072189509868622e-02 -7.0994544029235840e-01</leafValues></_>
        <_>
          <internalNodes>
            0 -1 350 1.1115150526165962e-02</internalNodes>
          <leafValues>
            -7.9466827213764191e-02 5.9047472476959229e-01</leafValues></_>
        <_>
          <internalNodes>
            0 -1 285 -4.2901679989881814e-04</internalNodes>
          <leafValues>
            3.6045259237289429e-01 -2.3542825877666473e-01</leafValues></_>
        <_>
          <internalNodes>
            0 -1 315 -7.7823987230658531e-03</internalNodes>
          <leafValues>
            -7.9480230808258057e-01 6.9159701466560364e-02</leafValues></_>
        <_>
          <internalNodes>
            0 -1 158 -3.2798029482364655e-02</internalNodes>
          <leafValues>
            -6.8959063291549683e-01 9.4244591891765594e-02</leafValues></_>
        <_>
          <internalNodes>
            0 -1 384 -3.3917161636054516e-04</internalNodes>
          <leafValues>
            -3.8057374954223633e-01 1.9928410649299622e-01</leafValues></_>
        <_>
          <internalNodes>
            0 -1 367 8.3762337453663349e-04</internalNodes>
          <leafValues>
            -1.2339861690998077e-01 6.4526444673538208e-01</leafValues></_>
        <_>
          <internalNodes>
            0 -1 171 5.4792738519608974e-03</internalNodes>
          <leafValues>
            9.4855956733226776e-02 -8.3264803886413574e-01</leafValues></_>
        <_>
          <internalNodes>
            0 -1 16 -6.2760673463344574e-02</internalNodes>
          <leafValues>
            6.9727391004562378e-01 -1.1170518398284912e-01</leafValues></_>
        <_>
          <internalNodes>
            0 -1 74 -1.3539853971451521e-03</internalNodes>
          <leafValues>
            3.3031874895095825e-01 -2.2356137633323669e-01</leafValues></_>
        <_>
          <internalNodes>
            0 -1 76 1.6408829018473625e-02</internalNodes>
          <leafValues>
            -8.6787030100822449e-02 9.4251883029937744e-01</leafValues></_>
        <_>
          <internalNodes>
            0 -1 159 7.3068356141448021e-04</internalNodes>
          <leafValues>
            2.0234915614128113e-01 -4.3224513530731201e-01</leafValues></_>
        <_>
          <internalNodes>
            0 -1 79 1.3467136304825544e-03</internalNodes>
          <leafValues>
            -2.2039660811424255e-01 3.3523708581924438e-01</leafValues></_>
        <_>
          <internalNodes>
            0 -1 81 -9.9268567282706499e-04</internalNodes>
          <leafValues>
            4.2650401592254639e-01 -2.1012274920940399e-01</leafValues></_>
        <_>
          <internalNodes>
            0 -1 405 -3.5251872614026070e-03</internalNodes>
          <leafValues>
            -4.2501515150070190e-01 1.9234243035316467e-01</leafValues></_></weakClassifiers></_>
    <!-- stage 21 -->
    <_>
      <maxWeakCount>14</maxWeakCount>
      <stageThreshold>-5.9177905321121216e-01</stageThreshold>
      <weakClassifiers>
        <_>
          <internalNodes>
            0 -1 11 -1.3072373345494270e-02</internalNodes>
          <leafValues>
            4.9112427234649658e-01 -1.5328466892242432e-01</leafValues></_>
        <_>
          <internalNodes>
            0 -1 19 -3.5511478781700134e-02</internalNodes>
          <leafValues>
            4.2339703440666199e-01 -1.3840453326702118e-01</leafValues></_>
        <_>
          <internalNodes>
            0 -1 117 -2.8354050591588020e-02</internalNodes>
          <leafValues>
            2.9821559786796570e-01 -2.5140735507011414e-01</leafValues></_>
        <_>
          <internalNodes>
            0 -1 238 -1.5505913645029068e-02</internalNodes>
          <leafValues>
            2.0014780759811401e-01 -3.7268677353858948e-01</leafValues></_>
        <_>
          <internalNodes>
            0 -1 188 1.4663366600871086e-03</internalNodes>
          <leafValues>
            -9.4844125211238861e-02 4.2410221695899963e-01</leafValues></_>
        <_>
          <internalNodes>
            0 -1 75 2.6867887936532497e-03</internalNodes>
          <leafValues>
            -2.1637745201587677e-01 3.3147013187408447e-01</leafValues></_>
        <_>
          <internalNodes>
            0 -1 32 1.3509062118828297e-03</internalNodes>
          <leafValues>
            1.1584486067295074e-01 -5.1522630453109741e-01</leafValues></_>
        <_>
          <internalNodes>
            0 -1 57 -2.4174530990421772e-03</internalNodes>
          <leafValues>
            4.8581340909004211e-01 -1.5453912317752838e-01</leafValues></_>
        <_>
          <internalNodes>
            0 -1 33 6.9404043257236481e-02</internalNodes>
          <leafValues>
            1.2340620160102844e-01 -6.0364145040512085e-01</leafValues></_>
        <_>
          <internalNodes>
            0 -1 58 -9.6188277006149292e-02</internalNodes>
          <leafValues>
            -6.3959878683090210e-01 1.2954817712306976e-01</leafValues></_>
        <_>
          <internalNodes>
            0 -1 70 -8.5458867251873016e-03</internalNodes>
          <leafValues>
            6.1316674947738647e-01 -1.4935538172721863e-01</leafValues></_>
        <_>
          <internalNodes>
            0 -1 141 2.6878085918724537e-03</internalNodes>
          <leafValues>
            2.1954877674579620e-01 -3.9070922136306763e-01</leafValues></_>
        <_>
          <internalNodes>
            0 -1 399 2.5372556410729885e-03</internalNodes>
          <leafValues>
            -1.9675020873546600e-01 4.6610623598098755e-01</leafValues></_>
        <_>
          <internalNodes>
            0 -1 309 3.3951317891478539e-04</internalNodes>
          <leafValues>
            2.1919894218444824e-01 -3.6845886707305908e-01</leafValues></_></weakClassifiers></_>
    <!-- stage 22 -->
    <_>
      <maxWeakCount>19</maxWeakCount>
      <stageThreshold>-8.8937371969223022e-01</stageThreshold>
      <weakClassifiers>
        <_>
          <internalNodes>
            0 -1 126 7.3944553732872009e-02</internalNodes>
          <leafValues>
            -1.0804598033428192e-01 4.6206897497177124e-01</leafValues></_>
        <_>
          <internalNodes>
            0 -1 118 -3.9738949388265610e-02</internalNodes>
          <leafValues>
            4.7287610173225403e-01 -1.8693782389163971e-01</leafValues></_>
        <_>
          <internalNodes>
            0 -1 222 -3.7098053842782974e-02</internalNodes>
          <leafValues>
            2.6417466998100281e-01 -2.7866750955581665e-01</leafValues></_>
        <_>
          <internalNodes>
            0 -1 352 -3.8237925618886948e-03</internalNodes>
          <leafValues>
            8.1896597146987915e-01 -8.5604272782802582e-02</leafValues></_>
        <_>
          <internalNodes>
            0 -1 169 -1.3875719159841537e-03</internalNodes>
          <leafValues>
            2.3285923898220062e-01 -2.7091977000236511e-01</leafValues></_>
        <_>
          <internalNodes>
            0 -1 298 -9.8753971979022026e-03</internalNodes>
          <leafValues>
            -9.4593882560729980e-01 8.3271406590938568e-02</leafValues></_>
        <_>
          <internalNodes>
            0 -1 50 2.4598192423582077e-02</internalNodes>
          <leafValues>
            -1.5500968694686890e-01 5.5178219079971313e-01</leafValues></_>
        <_>
          <internalNodes>
            0 -1 59 3.3107929630205035e-04</internalNodes>
          <leafValues>
            -1.9780300557613373e-01 3.3217293024063110e-01</leafValues></_>
        <_>
          <internalNodes>
            0 -1 204 -1.2231324217282236e-04</internalNodes>
          <leafValues>
            3.0659684538841248e-01 -2.3095729947090149e-01</leafValues></_>
        <_>
          <internalNodes>
            0 -1 98 -1.0285370796918869e-01</internalNodes>
          <leafValues>
            8.8865464925765991e-01 -9.7399607300758362e-02</leafValues></_>
        <_>
          <internalNodes>
            0 -1 420 5.3678239055443555e-05</internalNodes>
          <leafValues>
            -2.3850747942924500e-01 3.1793099641799927e-01</leafValues></_>
        <_>
          <internalNodes>
            0 -1 265 1.2870684440713376e-04</internalNodes>
          <leafValues>
            2.3521061241626740e-01 -3.1416615843772888e-01</leafValues></_>
        <_>
          <internalNodes>
            0 -1 199 -4.2356746271252632e-03</internalNodes>
          <leafValues>
            4.9647060036659241e-01 -1.5548110008239746e-01</leafValues></_>
        <_>
          <internalNodes>
            0 -1 311 -2.3183289158623666e-04</internalNodes>
          <leafValues>
            3.7350118160247803e-01 -2.1558858454227448e-01</leafValues></_>
        <_>
          <internalNodes>
            0 -1 208 9.6053648740053177e-03</internalNodes>
          <leafValues>
            -1.1256754398345947e-01 6.9140815734863281e-01</leafValues></_>
        <_>
          <internalNodes>
            0 -1 327 3.9478950202465057e-03</internalNodes>
          <leafValues>
            1.4759141206741333e-01 -7.3019319772720337e-01</leafValues></_>
        <_>
          <internalNodes>
            0 -1 128 -8.5708368569612503e-03</internalNodes>
          <leafValues>
            4.8670747876167297e-01 -1.8177372217178345e-01</leafValues></_>
        <_>
          <internalNodes>
            0 -1 112 -7.4588332790881395e-04</internalNodes>
          <leafValues>
            -4.5529213547706604e-01 1.9255781173706055e-01</leafValues></_>
        <_>
          <internalNodes>
            0 -1 354 2.7377135120332241e-04</internalNodes>
          <leafValues>
            -1.9846719503402710e-01 4.0235951542854309e-01</leafValues></_></weakClassifiers></_>
    <!-- stage 23 -->
    <_>
      <maxWeakCount>15</maxWeakCount>
      <stageThreshold>-7.6181864738464355e-01</stageThreshold>
      <weakClassifiers>
        <_>
          <internalNodes>
            0 -1 170 -1.6983485693344846e-05</internalNodes>
          <leafValues>
            3.2812500000000000e-01 -1.9753086566925049e-01</leafValues></_>
        <_>
          <internalNodes>
            0 -1 379 2.7708257548511028e-03</internalNodes>
          <leafValues>
            -8.8580578565597534e-02 7.8656417131423950e-01</leafValues></_>
        <_>
          <internalNodes>
            0 -1 134 7.9535301774740219e-03</internalNodes>
          <leafValues>
            7.8791670501232147e-02 -7.5769042968750000e-01</leafValues></_>
        <_>
          <internalNodes>
            0 -1 83 -2.2960016503930092e-02</internalNodes>
          <leafValues>
            -4.7679910063743591e-01 2.0824737846851349e-01</leafValues></_>
        <_>
          <internalNodes>
            0 -1 189 7.5236051343381405e-03</internalNodes>
          <leafValues>
            -1.8421399593353271e-01 6.0647433996200562e-01</leafValues></_>
        <_>
          <internalNodes>
            0 -1 324 1.6751529183238745e-03</internalNodes>
          <leafValues>
            -9.3340948224067688e-02 7.6618218421936035e-01</leafValues></_>
        <_>
          <internalNodes>
            0 -1 10 -1.2786241248250008e-02</internalNodes>
          <leafValues>
            4.9757218360900879e-01 -1.5526723861694336e-01</leafValues></_>
        <_>
          <internalNodes>
            0 -1 51 -4.0667936205863953e-02</internalNodes>
          <leafValues>
            6.2725716829299927e-01 -1.5829893946647644e-01</leafValues></_>
        <_>
          <internalNodes>
            0 -1 394 -2.5832143728621304e-04</internalNodes>
          <leafValues>
            3.6717706918716431e-01 -2.3136863112449646e-01</leafValues></_>
        <_>
          <internalNodes>
            0 -1 378 -1.6733642041799612e-05</internalNodes>
          <leafValues>
            3.5236820578575134e-01 -2.4855655431747437e-01</leafValues></_>
        <_>
          <internalNodes>
            0 -1 289 3.4422776661813259e-04</internalNodes>
          <leafValues>
            1.8801702558994293e-01 -5.3392875194549561e-01</leafValues></_>
        <_>
          <internalNodes>
            0 -1 110 2.4022241123020649e-03</internalNodes>
          <leafValues>
            3.1980913877487183e-01 -3.1827610731124878e-01</leafValues></_>
        <_>
          <internalNodes>
            0 -1 140 1.7725331708788872e-02</internalNodes>
          <leafValues>
            -1.3137821853160858e-01 7.5377756357192993e-01</leafValues></_>
        <_>
          <internalNodes>
            0 -1 337 2.3605136200785637e-02</internalNodes>
          <leafValues>
            -2.9544600844383240e-01 3.2792338728904724e-01</leafValues></_>
        <_>
          <internalNodes>
            0 -1 100 1.1925874277949333e-03</internalNodes>
          <leafValues>
            -2.6119726896286011e-01 3.5725620388984680e-01</leafValues></_></weakClassifiers></_>
    <!-- stage 24 -->
    <_>
      <maxWeakCount>16</maxWeakCount>
      <stageThreshold>-5.4823899269104004e-01</stageThreshold>
      <weakClassifiers>
        <_>
          <internalNodes>
            0 -1 39 1.2046693591400981e-03</internalNodes>
          <leafValues>
            2.4421593546867371e-01 -3.9267015457153320e-01</leafValues></_>
        <_>
          <internalNodes>
            0 -1 145 -4.1897781193256378e-03</internalNodes>
          <leafValues>
            2.9165133833885193e-01 -2.2826106846332550e-01</leafValues></_>
        <_>
          <internalNodes>
            0 -1 176 8.7376516312360764e-03</internalNodes>
          <leafValues>
            -2.2572836279869080e-01 3.2659235596656799e-01</leafValues></_>
        <_>
          <internalNodes>
            0 -1 225 1.6060410998761654e-03</internalNodes>
          <leafValues>
            1.1502391844987869e-01 -5.4688018560409546e-01</leafValues></_>
        <_>
          <internalNodes>
            0 -1 36 -1.5213866718113422e-03</internalNodes>
          <leafValues>
            -4.9683055281639099e-01 1.5856522321701050e-01</leafValues></_>
        <_>
          <internalNodes>
            0 -1 331 4.9731770559446886e-05</internalNodes>
          <leafValues>
            -2.3642566800117493e-01 3.6745259165763855e-01</leafValues></_>
        <_>
          <internalNodes>
            0 -1 191 2.0781145431101322e-03</internalNodes>
          <leafValues>
            1.2734355032444000e-01 -6.2252837419509888e-01</leafValues></_>
        <_>
          <internalNodes>
            0 -1 303 -4.5254692435264587e-02</internalNodes>
          <leafValues>
            7.5468784570693970e-01 -1.4172297716140747e-01</leafValues></_>
        <_>
          <internalNodes>
            0 -1 226 -2.8793252567993477e-05</internalNodes>
          <leafValues>
            2.7501857280731201e-01 -3.0739411711692810e-01</leafValues></_>
        <_>
          <internalNodes>
            0 -1 363 -3.4735752269625664e-03</internalNodes>
          <leafValues>
            5.5417674779891968e-01 -1.4745266735553741e-01</leafValues></_>
        <_>
          <internalNodes>
            0 -1 307 -2.7211406268179417e-03</internalNodes>
          <leafValues>
            -5.4480743408203125e-01 1.5967285633087158e-01</leafValues></_>
        <_>
          <internalNodes>
            0 -1 52 -1.0573195293545723e-02</internalNodes>
          <leafValues>
            7.3467975854873657e-01 -1.4065617322921753e-01</leafValues></_>
        <_>
          <internalNodes>
            0 -1 302 2.2869722452014685e-03</internalNodes>
          <leafValues>
            -2.0022146403789520e-01 3.8368949294090271e-01</leafValues></_>
        <_>
          <internalNodes>
            0 -1 206 -6.0388352721929550e-04</internalNodes>
          <leafValues>
            2.4735376238822937e-01 -4.0107303857803345e-01</leafValues></_>
        <_>
          <internalNodes>
            0 -1 202 6.6999881528317928e-03</internalNodes>
          <leafValues>
            -1.2174814939498901e-01 7.7031558752059937e-01</leafValues></_>
        <_>
          <internalNodes>
            0 -1 345 -4.1588316671550274e-03</internalNodes>
          <leafValues>
            4.9016577005386353e-01 -1.7114926874637604e-01</leafValues></_></weakClassifiers></_>
    <!-- stage 25 -->
    <_>
      <maxWeakCount>14</maxWeakCount>
      <stageThreshold>-7.9961919784545898e-01</stageThreshold>
      <weakClassifiers>
        <_>
          <internalNodes>
            0 -1 205 -2.2391574457287788e-03</internalNodes>
          <leafValues>
            -5.2857142686843872e-01 2.1363636851310730e-01</leafValues></_>
        <_>
          <internalNodes>
            0 -1 341 -6.6645676270127296e-03</internalNodes>
          <leafValues>
            3.3235865831375122e-01 -2.2579708695411682e-01</leafValues></_>
        <_>
          <internalNodes>
            0 -1 270 1.7511878395453095e-03</internalNodes>
          <leafValues>
            1.1993423849344254e-01 -6.9108086824417114e-01</leafValues></_>
        <_>
          <internalNodes>
            0 -1 54 1.3515951577574015e-03</internalNodes>
          <leafValues>
            -1.8352018296718597e-01 4.2951837182044983e-01</leafValues></_>
        <_>
          <internalNodes>
            0 -1 103 4.7856951132416725e-03</internalNodes>
          <leafValues>
            -2.1272209286689758e-01 5.2993637323379517e-01</leafValues></_>
        <_>
          <internalNodes>
            0 -1 397 1.3797304127365351e-03</internalNodes>
          <leafValues>
            1.6512028872966766e-01 -8.2953780889511108e-01</leafValues></_>
        <_>
          <internalNodes>
            0 -1 412 -9.1179483570158482e-04</internalNodes>
          <leafValues>
            -5.8907216787338257e-01 1.3476945459842682e-01</leafValues></_>
        <_>
          <internalNodes>
            0 -1 251 2.3833874147385359e-03</internalNodes>
          <leafValues>
            -3.5732355713844299e-01 2.3910731077194214e-01</leafValues></_>
        <_>
          <internalNodes>
            0 -1 87 -8.0138328485190868e-04</internalNodes>
          <leafValues>
            -5.2678841352462769e-01 1.8499004840850830e-01</leafValues></_>
        <_>
          <internalNodes>
            0 -1 160 -3.2059829682111740e-03</internalNodes>
          <leafValues>
            -6.8075478076934814e-01 1.2033882737159729e-01</leafValues></_>
        <_>
          <internalNodes>
            0 -1 387 7.7425674535334110e-03</internalNodes>
          <leafValues>
            -2.3036897182464600e-01 4.3542519211769104e-01</leafValues></_>
        <_>
          <internalNodes>
            0 -1 212 2.5927408132702112e-03</internalNodes>
          <leafValues>
            -2.1307732164859772e-01 4.6683052182197571e-01</leafValues></_>
        <_>
          <internalNodes>
            0 -1 371 -1.3476418098434806e-03</internalNodes>
          <leafValues>
            -6.2290787696838379e-01 1.8194445967674255e-01</leafValues></_>
        <_>
          <internalNodes>
            0 -1 144 -3.5796307027339935e-02</internalNodes>
          <leafValues>
            4.2881903052330017e-01 -2.6677605509757996e-01</leafValues></_></weakClassifiers></_>
    <!-- stage 26 -->
    <_>
      <maxWeakCount>18</maxWeakCount>
      <stageThreshold>-5.7244873046875000e-01</stageThreshold>
      <weakClassifiers>
        <_>
          <internalNodes>
            0 -1 29 1.4159617421682924e-05</internalNodes>
          <leafValues>
            -1.6890080273151398e-01 4.0096619725227356e-01</leafValues></_>
        <_>
          <internalNodes>
            0 -1 266 -1.3776177074760199e-03</internalNodes>
          <leafValues>
            5.1492387056350708e-01 -1.3189956545829773e-01</leafValues></_>
        <_>
          <internalNodes>
            0 -1 197 5.4858718067407608e-03</internalNodes>
          <leafValues>
            -2.1177501976490021e-01 4.5672586560249329e-01</leafValues></_>
        <_>
          <internalNodes>
            0 -1 264 -2.8514134464785457e-04</internalNodes>
          <leafValues>
            -4.6211785078048706e-01 1.8701964616775513e-01</leafValues></_>
        <_>
          <internalNodes>
            0 -1 381 2.1713781170547009e-03</internalNodes>
          <leafValues>
            2.7866289019584656e-01 -3.5777962207794189e-01</leafValues></_>
        <_>
          <internalNodes>
            0 -1 22 -1.3900634832680225e-02</internalNodes>
          <leafValues>
            2.8534910082817078e-01 -3.2200899720191956e-01</leafValues></_>
        <_>
          <internalNodes>
            0 -1 340 1.7394829541444778e-02</internalNodes>
          <leafValues>
            -2.7127912640571594e-01 3.3834031224250793e-01</leafValues></_>
        <_>
          <internalNodes>
            0 -1 400 -3.0750269070267677e-03</internalNodes>
          <leafValues>
            3.2881495356559753e-01 -2.6931414008140564e-01</leafValues></_>
        <_>
          <internalNodes>
            0 -1 192 3.9500598795711994e-03</internalNodes>
          <leafValues>
            1.5132541954517365e-01 -6.2577450275421143e-01</leafValues></_>
        <_>
          <internalNodes>
            0 -1 166 -1.8919315189123154e-02</internalNodes>
          <leafValues>
            6.7955213785171509e-01 -1.8810230493545532e-01</leafValues></_>
        <_>
          <internalNodes>
            0 -1 372 8.9942768681794405e-04</internalNodes>
          <leafValues>
            -2.2210760414600372e-01 3.8450774550437927e-01</leafValues></_>
        <_>
          <internalNodes>
            0 -1 194 1.8878925591707230e-02</internalNodes>
          <leafValues>
            -1.8684624135494232e-01 4.4808357954025269e-01</leafValues></_>
        <_>
          <internalNodes>
            0 -1 111 1.1657673865556717e-02</internalNodes>
          <leafValues>
            -1.4074851572513580e-01 5.7907897233963013e-01</leafValues></_>
        <_>
          <internalNodes>
            0 -1 268 3.1248008599504828e-04</internalNodes>
          <leafValues>
            1.0741747170686722e-01 -7.0866966247558594e-01</leafValues></_>
        <_>
          <internalNodes>
            0 -1 356 -2.4220582563430071e-03</internalNodes>
          <leafValues>
            -5.2936244010925293e-01 1.3994163274765015e-01</leafValues></_>
        <_>
          <internalNodes>
            0 -1 401 -1.4684977941215038e-04</internalNodes>
          <leafValues>
            3.9141324162483215e-01 -2.2735241055488586e-01</leafValues></_>
        <_>
          <internalNodes>
            0 -1 410 -1.0517954360693693e-03</internalNodes>
          <leafValues>
            -7.1876496076583862e-01 1.2821605801582336e-01</leafValues></_>
        <_>
          <internalNodes>
            0 -1 219 1.1393912136554718e-03</internalNodes>
          <leafValues>
            -1.7175291478633881e-01 5.8802276849746704e-01</leafValues></_></weakClassifiers></_>
    <!-- stage 27 -->
    <_>
      <maxWeakCount>17</maxWeakCount>
      <stageThreshold>-7.8596186637878418e-01</stageThreshold>
      <weakClassifiers>
        <_>
          <internalNodes>
            0 -1 172 2.0152980461716652e-02</internalNodes>
          <leafValues>
            -7.7227719128131866e-02 7.8666669130325317e-01</leafValues></_>
        <_>
          <internalNodes>
            0 -1 37 -3.1495126895606518e-03</internalNodes>
          <leafValues>
            -8.8522666692733765e-01 1.1501699686050415e-01</leafValues></_>
        <_>
          <internalNodes>
            0 -1 85 -2.6849475034396164e-05</internalNodes>
          <leafValues>
            3.3657664060592651e-01 -2.5929209589958191e-01</leafValues></_>
        <_>
          <internalNodes>
            0 -1 109 3.7102911621332169e-02</internalNodes>
          <leafValues>
            8.8395297527313232e-02 -6.5629929304122925e-01</leafValues></_>
        <_>
          <internalNodes>
            0 -1 249 3.2112696208059788e-03</internalNodes>
          <leafValues>
            -2.2546204924583435e-01 4.0325379371643066e-01</leafValues></_>
        <_>
          <internalNodes>
            0 -1 149 5.5135458707809448e-02</internalNodes>
          <leafValues>
            1.6510769724845886e-01 -5.2663958072662354e-01</leafValues></_>
        <_>
          <internalNodes>
            0 -1 339 -7.8641688451170921e-03</internalNodes>
          <leafValues>
            6.1010789871215820e-01 -1.4996372163295746e-01</leafValues></_>
        <_>
          <internalNodes>
            0 -1 240 5.2588763646781445e-03</internalNodes>
          <leafValues>
            1.1338830739259720e-01 -8.1522959470748901e-01</leafValues></_>
        <_>
          <internalNodes>
            0 -1 259 1.2844559387303889e-04</internalNodes>
          <leafValues>
            -2.4403883516788483e-01 3.6400923132896423e-01</leafValues></_>
        <_>
          <internalNodes>
            0 -1 180 2.1579588064923882e-05</internalNodes>
          <leafValues>
            -2.3998111486434937e-01 3.9882344007492065e-01</leafValues></_>
        <_>
          <internalNodes>
            0 -1 132 -1.4874974265694618e-02</internalNodes>
          <leafValues>
            4.7710749506950378e-01 -1.8514472246170044e-01</leafValues></_>
        <_>
          <internalNodes>
            0 -1 80 5.6211285293102264e-02</internalNodes>
          <leafValues>
            -1.4911967515945435e-01 7.4110072851181030e-01</leafValues></_>
        <_>
          <internalNodes>
            0 -1 333 1.5137276204768568e-04</internalNodes>
          <leafValues>
            -3.0453720688819885e-01 2.9182058572769165e-01</leafValues></_>
        <_>
          <internalNodes>
            0 -1 250 -1.0605721763567999e-04</internalNodes>
          <leafValues>
            3.8092279434204102e-01 -2.3897495865821838e-01</leafValues></_>
        <_>
          <internalNodes>
            0 -1 357 1.2869357306044549e-04</internalNodes>
          <leafValues>
            -2.0161220431327820e-01 4.7217488288879395e-01</leafValues></_>
        <_>
          <internalNodes>
            0 -1 407 3.9696466410532594e-04</internalNodes>
          <leafValues>
            -2.6032429933547974e-01 3.6162722110748291e-01</leafValues></_>
        <_>
          <internalNodes>
            0 -1 114 2.0525103900581598e-03</internalNodes>
          <leafValues>
            1.0965840518474579e-01 -8.2875949144363403e-01</leafValues></_></weakClassifiers></_>
    <!-- stage 28 -->
    <_>
      <maxWeakCount>15</maxWeakCount>
      <stageThreshold>-9.7053575515747070e-01</stageThreshold>
      <weakClassifiers>
        <_>
          <internalNodes>
            0 -1 267 -7.2819869965314865e-03</internalNodes>
          <leafValues>
            4.4278606772422791e-01 -1.8205805122852325e-01</leafValues></_>
        <_>
          <internalNodes>
            0 -1 312 2.1626246161758900e-03</internalNodes>
          <leafValues>
            -1.8977957963943481e-01 4.7400087118148804e-01</leafValues></_>
        <_>
          <internalNodes>
            0 -1 20 -6.1455592513084412e-02</internalNodes>
          <leafValues>
            3.1338536739349365e-01 -3.1970795989036560e-01</leafValues></_>
        <_>
          <internalNodes>
            0 -1 139 -2.3070489987730980e-03</internalNodes>
          <leafValues>
            5.4152244329452515e-01 -1.1811313033103943e-01</leafValues></_>
        <_>
          <internalNodes>
            0 -1 286 -8.3212871104478836e-03</internalNodes>
          <leafValues>
            4.8582202196121216e-01 -1.8398639559745789e-01</leafValues></_>
        <_>
          <internalNodes>
            0 -1 56 -7.4122613295912743e-03</internalNodes>
          <leafValues>
            -8.2143348455429077e-01 1.4190934598445892e-01</leafValues></_>
        <_>
          <internalNodes>
            0 -1 366 4.7895391471683979e-03</internalNodes>
          <leafValues>
            -1.2140677869319916e-01 8.4283149242401123e-01</leafValues></_>
        <_>
          <internalNodes>
            0 -1 107 -2.4869056418538094e-02</internalNodes>
          <leafValues>
            -3.2731097936630249e-01 2.7150845527648926e-01</leafValues></_>
        <_>
          <internalNodes>
            0 -1 304 -2.6603434234857559e-02</internalNodes>
          <leafValues>
            9.4004034996032715e-01 -6.2374059110879898e-02</leafValues></_>
        <_>
          <internalNodes>
            0 -1 185 -4.4931535376235843e-04</internalNodes>
          <leafValues>
            4.3508747220039368e-01 -1.9249565899372101e-01</leafValues></_>
        <_>
          <internalNodes>
            0 -1 167 -3.2504126429557800e-03</internalNodes>
          <leafValues>
            6.1172938346862793e-01 -1.6186825931072235e-01</leafValues></_>
        <_>
          <internalNodes>
            0 -1 388 3.6136807466391474e-05</internalNodes>
          <leafValues>
            -2.0885479450225830e-01 3.9057016372680664e-01</leafValues></_>
        <_>
          <internalNodes>
            0 -1 86 1.1863071995321661e-04</internalNodes>
          <leafValues>
            -2.3791122436523438e-01 4.0926140546798706e-01</leafValues></_>
        <_>
          <internalNodes>
            0 -1 27 3.0595308635383844e-03</internalNodes>
          <leafValues>
            1.7045451700687408e-01 -5.8267068862915039e-01</leafValues></_>
        <_>
          <internalNodes>
            0 -1 403 7.3779362719506025e-04</internalNodes>
          <leafValues>
            2.5839501619338989e-01 -3.8372367620468140e-01</leafValues></_></weakClassifiers></_>
    <!-- stage 29 -->
    <_>
      <maxWeakCount>14</maxWeakCount>
      <stageThreshold>-7.2418332099914551e-01</stageThreshold>
      <weakClassifiers>
        <_>
          <internalNodes>
            0 -1 65 2.5348342955112457e-02</internalNodes>
          <leafValues>
            -1.6795866191387177e-01 4.4041451811790466e-01</leafValues></_>
        <_>
          <internalNodes>
            0 -1 282 2.5245628785341978e-04</internalNodes>
          <leafValues>
            1.8383859097957611e-01 -4.2381295561790466e-01</leafValues></_>
        <_>
          <internalNodes>
            0 -1 62 2.2803064435720444e-02</internalNodes>
          <leafValues>
            -8.9996665716171265e-02 9.0911781787872314e-01</leafValues></_>
        <_>
          <internalNodes>
            0 -1 306 9.8573567811399698e-04</internalNodes>
          <leafValues>
            1.1088052392005920e-01 -7.3918223381042480e-01</leafValues></_>
        <_>
          <internalNodes>
            0 -1 374 9.2244762927293777e-03</internalNodes>
          <leafValues>
            -1.3688877224922180e-01 5.6710964441299438e-01</leafValues></_>
        <_>
          <internalNodes>
            0 -1 244 -6.7612278508022428e-04</internalNodes>
          <leafValues>
            -4.2589157819747925e-01 2.2630491852760315e-01</leafValues></_>
        <_>
          <internalNodes>
            0 -1 380 -5.5039022117853165e-03</internalNodes>
          <leafValues>
            9.0925455093383789e-01 -1.0358547419309616e-01</leafValues></_>
        <_>
          <internalNodes>
            0 -1 95 7.0673087611794472e-04</internalNodes>
          <leafValues>
            -1.3654027879238129e-01 5.7725149393081665e-01</leafValues></_>
        <_>
          <internalNodes>
            0 -1 84 1.5825692564249039e-02</internalNodes>
          <leafValues>
            1.0142859071493149e-01 -8.3813208341598511e-01</leafValues></_>
        <_>
          <internalNodes>
            0 -1 274 -1.2365237344056368e-03</internalNodes>
          <leafValues>
            -6.7292797565460205e-01 1.1475646495819092e-01</leafValues></_>
        <_>
          <internalNodes>
            0 -1 82 -1.3887125533074141e-04</internalNodes>
          <leafValues>
            4.3149846792221069e-01 -2.2340601682662964e-01</leafValues></_>
        <_>
          <internalNodes>
            0 -1 73 -4.7204792499542236e-03</internalNodes>
          <leafValues>
            5.6521451473236084e-01 -1.6737709939479828e-01</leafValues></_>
        <_>
          <internalNodes>
            0 -1 358 7.9769961303099990e-05</internalNodes>
          <leafValues>
            2.8047528862953186e-01 -3.3978787064552307e-01</leafValues></_>
        <_>
          <internalNodes>
            0 -1 55 -6.3349506817758083e-03</internalNodes>
          <leafValues>
            1. -9.5851600170135498e-02</leafValues></_></weakClassifiers></_></stages>
  <features>
    <_>
      <rects>
        <_>
          0 0 2 1 -1.</_>
        <_>
          1 0 1 1 2.</_></rects>
      <tilted>0</tilted></_>
    <_>
      <rects>
        <_>
          0 0 2 10 -1.</_>
        <_>
          1 0 1 10 2.</_></rects>
      <tilted>0</tilted></_>
    <_>
      <rects>
        <_>
          0 0 6 1 -1.</_>
        <_>
          2 0 2 1 3.</_></rects>
      <tilted>0</tilted></_>
    <_>
      <rects>
        <_>
          0 0 4 2 -1.</_>
        <_>
          2 0 2 2 2.</_></rects>
      <tilted>0</tilted></_>
    <_>
      <rects>
        <_>
          0 0 6 1 -1.</_>
        <_>
          3 0 3 1 2.</_></rects>
      <tilted>0</tilted></_>
    <_>
      <rects>
        <_>
          0 0 6 23 -1.</_>
        <_>
          3 0 3 23 2.</_></rects>
      <tilted>0</tilted></_>
    <_>
      <rects>
        <_>
          0 0 10 1 -1.</_>
        <_>
          5 0 5 1 2.</_></rects>
      <tilted>0</tilted></_>
    <_>
      <rects>
        <_>
          0 0 12 1 -1.</_>
        <_>
          6 0 6 1 2.</_></rects>
      <tilted>0</tilted></_>
    <_>
      <rects>
        <_>
          0 0 18 19 -1.</_>
        <_>
          6 0 6 19 3.</_></rects>
      <tilted>0</tilted></_>
    <_>
      <rects>
        <_>
          0 0 21 18 -1.</_>
        <_>
          0 6 21 6 3.</_></rects>
      <tilted>0</tilted></_>
    <_>
      <rects>
        <_>
          0 0 22 2 -1.</_>
        <_>
          0 1 22 1 2.</_></rects>
      <tilted>0</tilted></_>
    <_>
      <rects>
        <_>
          0 0 23 2 -1.</_>
        <_>
          0 1 23 1 2.</_></rects>
      <tilted>0</tilted></_>
    <_>
      <rects>
        <_>
          0 0 23 18 -1.</_>
        <_>
          0 6 23 6 3.</_></rects>
      <tilted>0</tilted></_>
    <_>
      <rects>
        <_>
          0 1 1 2 -1.</_>
        <_>
          0 2 1 1 2.</_></rects>
      <tilted>0</tilted></_>
    <_>
      <rects>
        <_>
          0 1 6 1 -1.</_>
        <_>
          3 1 3 1 2.</_></rects>
      <tilted>0</tilted></_>
    <_>
      <rects>
        <_>
          0 1 3 3 -1.</_>
        <_>
          0 2 3 1 3.</_></rects>
      <tilted>0</tilted></_>
    <_>
      <rects>
        <_>
          0 1 15 3 -1.</_>
        <_>
          5 1 5 3 3.</_></rects>
      <tilted>0</tilted></_>
    <_>
      <rects>
        <_>
          0 1 15 8 -1.</_>
        <_>
          5 1 5 8 3.</_></rects>
      <tilted>0</tilted></_>
    <_>
      <rects>
        <_>
          0 1 12 23 -1.</_>
        <_>
          6 1 6 23 2.</_></rects>
      <tilted>0</tilted></_>
    <_>
      <rects>
        <_>
          0 2 9 22 -1.</_>
        <_>
          3 2 3 22 3.</_></rects>
      <tilted>0</tilted></_>
    <_>
      <rects>
        <_>
          0 2 10 20 -1.</_>
        <_>
          5 2 5 20 2.</_></rects>
      <tilted>0</tilted></_>
    <_>
      <rects>
        <_>
          0 3 8 2 -1.</_>
        <_>
          4 3 4 2 2.</_></rects>
      <tilted>0</tilted></_>
    <_>
      <rects>
        <_>
          0 3 12 9 -1.</_>
        <_>
          0 6 12 3 3.</_></rects>
      <tilted>0</tilted></_>
    <_>
      <rects>
        <_>
          0 6 2 1 -1.</_>
        <_>
          1 6 1 1 2.</_></rects>
      <tilted>0</tilted></_>
    <_>
      <rects>
        <_>
          0 6 24 13 -1.</_>
        <_>
          8 6 8 13 3.</_></rects>
      <tilted>0</tilted></_>
    <_>
      <rects>
        <_>
          0 7 16 9 -1.</_>
        <_>
          0 10 16 3 3.</_></rects>
      <tilted>0</tilted></_>
    <_>
      <rects>
        <_>
          0 8 3 8 -1.</_>
        <_>
          1 8 1 8 3.</_></rects>
      <tilted>0</tilted></_>
    <_>
      <rects>
        <_>
          0 8 2 12 -1.</_>
        <_>
          1 8 1 12 2.</_></rects>
      <tilted>0</tilted></_>
    <_>
      <rects>
        <_>
          0 8 6 16 -1.</_>
        <_>
          0 16 6 8 2.</_></rects>
      <tilted>0</tilted></_>
    <_>
      <rects>
        <_>
          0 10 2 2 -1.</_>
        <_>
          1 10 1 2 2.</_></rects>
      <tilted>0</tilted></_>
    <_>
      <rects>
        <_>
          0 10 18 12 -1.</_>
        <_>
          9 10 9 12 2.</_></rects>
      <tilted>0</tilted></_>
    <_>
      <rects>
        <_>
          0 10 15 8 -1.</_>
        <_>
          0 14 15 4 2.</_></rects>
      <tilted>0</tilted></_>
    <_>
      <rects>
        <_>
          0 11 2 7 -1.</_>
        <_>
          1 11 1 7 2.</_></rects>
      <tilted>0</tilted></_>
    <_>
      <rects>
        <_>
          0 11 22 12 -1.</_>
        <_>
          0 11 11 6 2.</_>
        <_>
          11 17 11 6 2.</_></rects>
      <tilted>0</tilted></_>
    <_>
      <rects>
        <_>
          0 13 1 6 -1.</_>
        <_>
          0 16 1 3 2.</_></rects>
      <tilted>0</tilted></_>
    <_>
      <rects>
        <_>
          0 13 24 11 -1.</_>
        <_>
          8 13 8 11 3.</_></rects>
      <tilted>0</tilted></_>
    <_>
      <rects>
        <_>
          0 15 2 3 -1.</_>
        <_>
          1 15 1 3 2.</_></rects>
      <tilted>0</tilted></_>
    <_>
      <rects>
        <_>
          0 16 1 4 -1.</_>
        <_>
          0 18 1 2 2.</_></rects>
      <tilted>0</tilted></_>
    <_>
      <rects>
        <_>
          0 16 24 4 -1.</_>
        <_>
          8 16 8 4 3.</_></rects>
      <tilted>0</tilted></_>
    <_>
      <rects>
        <_>
          0 17 1 6 -1.</_>
        <_>
          0 20 1 3 2.</_></rects>
      <tilted>0</tilted></_>
    <_>
      <rects>
        <_>
          0 18 14 5 -1.</_>
        <_>
          7 18 7 5 2.</_></rects>
      <tilted>0</tilted></_>
    <_>
      <rects>
        <_>
          0 19 4 3 -1.</_>
        <_>
          2 19 2 3 2.</_></rects>
      <tilted>0</tilted></_>
    <_>
      <rects>
        <_>
          0 20 1 3 -1.</_>
        <_>
          0 21 1 1 3.</_></rects>
      <tilted>0</tilted></_>
    <_>
      <rects>
        <_>
          0 23 2 1 -1.</_>
        <_>
          1 23 1 1 2.</_></rects>
      <tilted>0</tilted></_>
    <_>
      <rects>
        <_>
          0 23 4 1 -1.</_>
        <_>
          2 23 2 1 2.</_></rects>
      <tilted>0</tilted></_>
    <_>
      <rects>
        <_>
          0 23 8 1 -1.</_>
        <_>
          4 23 4 1 2.</_></rects>
      <tilted>0</tilted></_>
    <_>
      <rects>
        <_>
          1 0 4 2 -1.</_>
        <_>
          3 0 2 2 2.</_></rects>
      <tilted>0</tilted></_>
    <_>
      <rects>
        <_>
          1 0 15 1 -1.</_>
        <_>
          6 0 5 1 3.</_></rects>
      <tilted>0</tilted></_>
    <_>
      <rects>
        <_>
          1 0 9 2 -1.</_>
        <_>
          1 1 9 1 2.</_></rects>
      <tilted>0</tilted></_>
    <_>
      <rects>
        <_>
          1 0 21 2 -1.</_>
        <_>
          1 1 21 1 2.</_></rects>
      <tilted>0</tilted></_>
    <_>
      <rects>
        <_>
          1 2 4 22 -1.</_>
        <_>
          1 2 2 11 2.</_>
        <_>
          3 13 2 11 2.</_></rects>
      <tilted>0</tilted></_>
    <_>
      <rects>
        <_>
          1 2 10 9 -1.</_>
        <_>
          1 5 10 3 3.</_></rects>
      <tilted>0</tilted></_>
    <_>
      <rects>
        <_>
          1 3 3 13 -1.</_>
        <_>
          2 3 1 13 3.</_></rects>
      <tilted>0</tilted></_>
    <_>
      <rects>
